{"type":"LSTM","options":{"inputSize":35,"inputRange":35,"hiddenLayers":[20,20],"outputSize":35,"decayRate":0.999,"smoothEps":1e-8,"regc":0.000001,"clipval":5,"maxPredictionLength":100,"dataFormatter":{"indexTable":{"1":2,"2":17,"3":23,"4":25,"5":27,"6":28,"7":29,"8":30,"h":0,"i":1,"e":3,"l":4,"o":5," ":6,"t":7,"r":8,"w":9,"d":10,"y":11,"v":12,"n":13,"m":14,"a":15,"b":16,"c":18,"g":19,"s":20,"u":21,"k":22,"f":24,"p":26,"j":31,"stop-input":32,"start-output":33,"unrecognized":34},"characterTable":{"0":"h","1":"i","2":"1","3":"e","4":"l","5":"o","6":" ","7":"t","8":"r","9":"w","10":"d","11":"y","12":"v","13":"n","14":"m","15":"a","16":"b","17":"2","18":"c","19":"g","20":"s","21":"u","22":"k","23":"3","24":"f","25":"4","26":"p","27":"5","28":"6","29":"7","30":"8","31":"j","32":null,"33":null,"34":null},"values":["hi","1","hello","hi there","howdy","hi everyone","hello everyone","howdy everyone","hi mammoth","hello mammoth","bye","2","cya","good bye","goodbye","gnight","good night","see you","see you later","see you tomorrow","see you guys","see you everyone","good bye everyone","bye everyone","i have to go","i got to go","take it easy","have a nice day","have a good day","k i gtg cya","lol","3","lmao","heh","funny","funny guy","so funny","thats funny","lols","ha","ha ha","youre funny","your funny","ur funny","too funny","very funny","rofl","lmfao","weather","4","whats the weather","whats the weather like","hows the weather","is it raining","is it windy","is it sunny","is it snowing","is it cold","is it hot","how is it outside","what is the temperature","yes","5","absolutly","i guess","i agree","i think so","you bet","yas","ya","ok","sure","totally","okay","alrighty","sure thing","yeah","yea","mhmm","no","6","no thanks","nty","nope","no way","never","i cannot","i cant","i dont think so","i dont","i dont want too","how are you","7","hows it going","how are you doing","sup","yo","wasup","whats up","whats good","whats new","whats going on","hows everything","hows life","how are things","hows your day","hows your day going","good day","good morning","good afternoon","good evening","welcome","good to see you","how do i","8","how do i get roles","how do i join","how do i advance","how do i submit my stats","how do i submit stats","how do i become a member","how do i get sub","how do i get main","i need help","help me","help"],"characters":["h","i","1","e","l","o"," ","t","r","w","d","y","v","n","m","a","b","2","c","g","s","u","k","3","f","4","p","5","6","7","8","j","stop-input","start-output","unrecognized"],"specialIndexes":[32,33,34]}},"input":{"rows":36,"columns":35,"weights":{"0":0.420543909072876,"1":0.3247433602809906,"2":0.10587373375892639,"3":-0.39650991559028625,"4":-0.30332911014556885,"5":0.6212343573570251,"6":0.392852246761322,"7":0.3495778441429138,"8":0.6047971248626709,"9":-0.41029688715934753,"10":0.13790199160575867,"11":0.15335315465927124,"12":-0.5629420876502991,"13":0.307979553937912,"14":-0.39464282989501953,"15":0.3589722216129303,"16":-0.49197858572006226,"17":-0.2904961407184601,"18":0.20262321829795837,"19":0.10784144699573517,"20":0.5077128410339355,"21":-0.13142603635787964,"22":0.6137844920158386,"23":-0.32549867033958435,"24":0.4169367849826813,"25":0.0790102556347847,"26":0.0014656448038294911,"27":-0.05072476342320442,"28":0.25048553943634033,"29":0.014759186655282974,"30":0.000007682922841922846,"31":-0.26713359355926514,"32":0.22954079508781433,"33":0.6201895475387573,"34":0.2864557206630707,"35":-3.9521665573120117,"36":-0.29358622431755066,"37":-2.6929421424865723,"38":2.498429536819458,"39":-0.6213641166687012,"40":0.8674541115760803,"41":0.8570597171783447,"42":-3.8949382305145264,"43":0.0983319953083992,"44":-0.8506113290786743,"45":-2.2646772861480713,"46":1.7823508977890015,"47":-0.5625894069671631,"48":1.8332501649856567,"49":-0.8056870102882385,"50":-2.099982261657715,"51":1.7293506860733032,"52":1.2060495615005493,"53":-0.5426197648048401,"54":-1.400678038597107,"55":-1.1343369483947754,"56":-1.3735039234161377,"57":-3.0744316577911377,"58":-0.822172999382019,"59":0.4810715317726135,"60":0.5580797791481018,"61":1.5533838272094727,"62":-0.8671154975891113,"63":-1.0580453872680664,"64":2.5994691848754883,"65":-6.018765449523926,"66":0.3929407000541687,"67":-1.687564492225647,"68":5.974748611450195,"69":3.4439620971679688,"70":0.48258092999458313,"71":-0.4278102517127991,"72":-0.3897016644477844,"73":2.7011823654174805,"74":0.009237920865416527,"75":0.6346227526664734,"76":3.368239402770996,"77":-0.1909053772687912,"78":-0.5596460700035095,"79":2.3803582191467285,"80":-0.9831956028938293,"81":-1.0951248407363892,"82":0.3070080280303955,"83":6.771291255950928,"84":1.1018953323364258,"85":-4.364019870758057,"86":-1.8053805828094482,"87":-0.6629390716552734,"88":1.3425012826919556,"89":-1.9294450283050537,"90":1.0253223180770874,"91":-0.42338672280311584,"92":-1.5630455017089844,"93":0.5583659410476685,"94":-0.23405472934246063,"95":-1.9575438499450684,"96":2.1343419551849365,"97":-1.3218581676483154,"98":0.7828692197799683,"99":1.3076400756835938,"100":-1.1221846342086792,"101":-2.0832276344299316,"102":-1.8447699546813965,"103":0.6231318116188049,"104":2.5788521766662598,"105":-1.024155616760254,"106":-1.305682897567749,"107":-0.2224579155445099,"108":0.9939137101173401,"109":1.2975584268569946,"110":0.8995307087898254,"111":1.3550225496292114,"112":0.1576741635799408,"113":1.8774828910827637,"114":-0.21623381972312927,"115":0.6249670386314392,"116":0.7156901359558105,"117":1.0209406614303589,"118":0.8829091191291809,"119":1.4628034830093384,"120":-1.5593247413635254,"121":0.7898271083831787,"122":1.0271217823028564,"123":1.889575719833374,"124":-0.32931432127952576,"125":-0.24555008113384247,"126":0.19318947196006775,"127":1.12624192237854,"128":1.4347962141036987,"129":0.5806184411048889,"130":-1.1444352865219116,"131":-1.4564472436904907,"132":-1.017055630683899,"133":0.2871764898300171,"134":0.7664141654968262,"135":-1.0905123949050903,"136":-0.5872423648834229,"137":-1.9255003929138184,"138":0.5168389678001404,"139":0.18863193690776825,"140":-0.8792908191680908,"141":0.535037636756897,"142":2.1938374042510986,"143":-1.5951720476150513,"144":4.1469621658325195,"145":-0.12958495318889618,"146":1.7585548162460327,"147":0.14234620332717896,"148":0.6860419511795044,"149":1.014437198638916,"150":-2.5488107204437256,"151":1.094565987586975,"152":0.24881704151630402,"153":2.2168805599212646,"154":-0.5279914736747742,"155":-1.2052950859069824,"156":-0.8745758533477783,"157":-0.27888527512550354,"158":2.638162851333618,"159":-4.674471378326416,"160":-1.3765392303466797,"161":1.1822437047958374,"162":-0.667155921459198,"163":0.5241794586181641,"164":0.6900697350502014,"165":-1.661632776260376,"166":-1.029841661453247,"167":1.5857571363449097,"168":-2.4836831092834473,"169":0.9194797873497009,"170":0.764445960521698,"171":-0.03189484030008316,"172":-0.32623207569122314,"173":0.19847646355628967,"174":-0.3898734748363495,"175":-0.549026608467102,"176":0.2656136155128479,"177":2.182663679122925,"178":1.6739922761917114,"179":-1.1524128913879395,"180":0.0037968081887811422,"181":1.6740604639053345,"182":2.5191543102264404,"183":0.8729968070983887,"184":-4.165861129760742,"185":-1.4477368593215942,"186":0.6784166693687439,"187":1.1344187259674072,"188":0.6751998066902161,"189":1.695444107055664,"190":-8.264312744140625,"191":0.9168547987937927,"192":-4.277997016906738,"193":-0.9235930442810059,"194":0.6073411703109741,"195":1.6100775003433228,"196":-4.271439552307129,"197":1.6947011947631836,"198":1.6373094320297241,"199":2.1729350090026855,"200":-2.684431314468384,"201":1.4123836755752563,"202":-0.0810466930270195,"203":0.021073682233691216,"204":1.4618439674377441,"205":3.3007285594940186,"206":4.470065116882324,"207":-0.5637436509132385,"208":-0.9019515514373779,"209":-1.6211673021316528,"210":0.4758114218711853,"211":1.0631942749023438,"212":0.3954222500324249,"213":1.065293550491333,"214":0.632117509841919,"215":-0.07519296556711197,"216":2.36470103263855,"217":-1.8444889783859253,"218":-1.1389656066894531,"219":0.8774065375328064,"220":-0.30491241812705994,"221":-0.8946390151977539,"222":0.02440451644361019,"223":0.5212737917900085,"224":0.8008670806884766,"225":-1.4744213819503784,"226":-0.11523464322090149,"227":4.733006477355957,"228":-0.05793939158320427,"229":-1.9562413692474365,"230":1.4438501596450806,"231":0.5471814870834351,"232":-2.6631367206573486,"233":-1.8906517028808594,"234":-2.3987836837768555,"235":-0.8306131958961487,"236":1.5376731157302856,"237":0.961037278175354,"238":1.1823396682739258,"239":-0.6610234975814819,"240":1.418560266494751,"241":-1.6800498962402344,"242":-0.9616372585296631,"243":0.552570641040802,"244":1.5450067520141602,"245":0.6988703608512878,"246":1.9002537727355957,"247":0.9435588717460632,"248":1.3640192747116089,"249":1.5154534578323364,"250":0.42435750365257263,"251":-0.7563014030456543,"252":0.5779240727424622,"253":1.0611881017684937,"254":1.03646981716156,"255":3.255101203918457,"256":-0.27274787425994873,"257":1.658998727798462,"258":-0.8709995150566101,"259":-0.2696838676929474,"260":-1.0068674087524414,"261":2.645214080810547,"262":0.8458774089813232,"263":-1.0406320095062256,"264":0.32564929127693176,"265":-0.7795583605766296,"266":-1.5325357913970947,"267":-2.784846782684326,"268":-1.6292918920516968,"269":-0.19593816995620728,"270":0.5024406909942627,"271":5.283145427703857,"272":0.7341050505638123,"273":0.03748122230172157,"274":1.9709666967391968,"275":0.889957070350647,"276":-0.7426701784133911,"277":0.647844135761261,"278":-0.2845076322555542,"279":1.673351526260376,"280":1.9698035717010498,"281":2.1513631343841553,"282":0.2671396732330322,"283":3.7137765884399414,"284":1.377888798713684,"285":0.5982129573822021,"286":-1.8350054025650024,"287":0.04247361421585083,"288":-0.9732387661933899,"289":4.4243059158325195,"290":1.6781437397003174,"291":0.28381532430648804,"292":0.8960947394371033,"293":0.059302568435668945,"294":-0.9540480971336365,"295":-0.4627234637737274,"296":-1.732232689857483,"297":-0.622058093547821,"298":-1.558924913406372,"299":-2.686723470687866,"300":1.0645675659179688,"301":-0.9056882262229919,"302":-3.815147876739502,"303":2.7682387828826904,"304":-2.8485286235809326,"305":0.02580660954117775,"306":3.012347936630249,"307":1.9908519983291626,"308":1.6478737592697144,"309":1.3489351272583008,"310":3.4738245010375977,"311":0.6080431342124939,"312":1.1868289709091187,"313":-1.8426247835159302,"314":1.7985541820526123,"315":-1.0965458154678345,"316":-0.12292589247226715,"317":0.241562157869339,"318":0.28104665875434875,"319":0.0883362889289856,"320":0.9208002090454102,"321":-0.3096246123313904,"322":-1.461585283279419,"323":0.07470579445362091,"324":-3.0430943965911865,"325":0.24906015396118164,"326":1.4735652208328247,"327":-1.3786054849624634,"328":0.8072850704193115,"329":1.8604459762573242,"330":-0.7857537865638733,"331":-1.8451000452041626,"332":0.22267431020736694,"333":-0.5366859436035156,"334":0.09140612930059433,"335":-1.3468517065048218,"336":-0.6136986613273621,"337":2.6839303970336914,"338":1.9377330541610718,"339":-0.3787907361984253,"340":-1.3651902675628662,"341":-0.44321754574775696,"342":-1.61728835105896,"343":1.2644861936569214,"344":0.5972656607627869,"345":-2.8809633255004883,"346":-1.1323152780532837,"347":-1.7333694696426392,"348":0.6614640951156616,"349":1.9777883291244507,"350":2.3921926021575928,"351":0.619662880897522,"352":1.698932409286499,"353":-1.6524415016174316,"354":6.7791595458984375,"355":-3.9548301696777344,"356":-4.910186290740967,"357":-0.507514476776123,"358":0.19414421916007996,"359":2.947796583175659,"360":-0.1909441202878952,"361":-3.7584025859832764,"362":0.09927839040756226,"363":-1.515425205230713,"364":-1.1460490226745605,"365":2.0461416244506836,"366":-0.8644078969955444,"367":0.6297297477722168,"368":3.2328426837921143,"369":-1.4691087007522583,"370":0.5679100751876831,"371":3.43648624420166,"372":0.792878270149231,"373":-1.2129268646240234,"374":-0.6314722895622253,"375":-4.555920124053955,"376":8.35844612121582,"377":0.5088433623313904,"378":1.2276873588562012,"379":0.2885974049568176,"380":2.597133159637451,"381":-4.465354919433594,"382":-1.4344899654388428,"383":0.632025420665741,"384":-4.15340518951416,"385":2.1244091987609863,"386":0.9288010597229004,"387":0.6516236066818237,"388":-1.470961570739746,"389":2.342782497406006,"390":0.11161915212869644,"391":0.027035579085350037,"392":-1.774353265762329,"393":0.4444602131843567,"394":0.7078244686126709,"395":0.9325903058052063,"396":-2.4529061317443848,"397":-0.7332920432090759,"398":0.14164696633815765,"399":0.09997344762086868,"400":-2.495683193206787,"401":-0.30428728461265564,"402":-0.4570361077785492,"403":-0.5651371479034424,"404":0.04002523049712181,"405":-2.622880697250366,"406":0.6766482591629028,"407":0.24924395978450775,"408":-2.9755189418792725,"409":-0.9367058873176575,"410":-3.154177665710449,"411":2.1456456184387207,"412":0.3427359461784363,"413":-1.0639126300811768,"414":0.8639982342720032,"415":-2.3479318618774414,"416":-0.6544345617294312,"417":-0.5399784445762634,"418":3.7253434658050537,"419":1.9988343715667725,"420":0.3376074433326721,"421":-2.0371458530426025,"422":-2.5732879638671875,"423":3.850855588912964,"424":1.1919887065887451,"425":-0.10883777588605881,"426":-0.314940482378006,"427":-2.359447717666626,"428":1.0592763423919678,"429":1.1244045495986938,"430":-3.4554038047790527,"431":3.110569477081299,"432":-1.4378684759140015,"433":1.5877832174301147,"434":3.0416383743286133,"435":-1.0962896347045898,"436":-0.6523595452308655,"437":-0.002076884964480996,"438":-0.3182218670845032,"439":-4.384699821472168,"440":0.17525844275951385,"441":-1.2039216756820679,"442":0.17649824917316437,"443":-0.6023760437965393,"444":-2.8270998001098633,"445":0.5475747585296631,"446":1.177050232887268,"447":-1.9861435890197754,"448":3.3140311241149902,"449":0.08076454699039459,"450":-2.9541127681732178,"451":-2.6993088722229004,"452":-2.2132861614227295,"453":1.1668286323547363,"454":4.889739036560059,"455":3.0366790294647217,"456":-0.22666902840137482,"457":3.4372310638427734,"458":3.880594253540039,"459":1.3159252405166626,"460":1.5973745584487915,"461":-1.4914731979370117,"462":0.46467074751853943,"463":1.6955928802490234,"464":-0.7679696679115295,"465":-2.26212739944458,"466":0.39304956793785095,"467":-0.06504199653863907,"468":1.2476457357406616,"469":0.8258832693099976,"470":1.869349479675293,"471":-2.6917145252227783,"472":4.9323296546936035,"473":-5.7530598640441895,"474":3.4699745178222656,"475":-1.3617029190063477,"476":-2.343585968017578,"477":-0.4268736243247986,"478":0.5939828753471375,"479":3.904945135116577,"480":0.2742615342140198,"481":-5.051069736480713,"482":1.580162763595581,"483":2.7164511680603027,"484":0.5077716112136841,"485":-1.9747838973999023,"486":1.421872854232788,"487":-2.922390937805176,"488":5.181116104125977,"489":1.9055708646774292,"490":-0.9108455181121826,"491":-0.9056336283683777,"492":-0.8054506182670593,"493":-0.7112701535224915,"494":0.456783264875412,"495":0.5656608939170837,"496":0.5121978521347046,"497":-0.07954330742359161,"498":2.4430172443389893,"499":1.5255703926086426,"500":1.6459543704986572,"501":-0.49630051851272583,"502":-0.16492903232574463,"503":-0.053937047719955444,"504":1.2701047658920288,"505":-1.119982123374939,"506":-1.8771781921386719,"507":-1.0794082880020142,"508":-1.2609878778457642,"509":-0.15696904063224792,"510":-0.27547380328178406,"511":-0.5627084374427795,"512":-0.618547260761261,"513":0.2636716067790985,"514":0.3470648229122162,"515":0.0022328493651002645,"516":-0.005010765977203846,"517":0.30056360363960266,"518":-0.8538943529129028,"519":1.4127875566482544,"520":-3.1685240268707275,"521":0.04502444714307785,"522":-0.8551363945007324,"523":1.1142268180847168,"524":2.3088111877441406,"525":-2.7640976905822754,"526":-0.3196117877960205,"527":-1.4755680561065674,"528":0.5413315296173096,"529":-1.0498021841049194,"530":0.4033408761024475,"531":-0.9933557510375977,"532":-0.6276634335517883,"533":0.11335653066635132,"534":1.2837415933609009,"535":-0.4409618079662323,"536":-0.7552161812782288,"537":2.1714978218078613,"538":0.7082201242446899,"539":-1.400633692741394,"540":-5.616489887237549,"541":-0.8208111524581909,"542":1.3630506992340088,"543":-4.177800178527832,"544":-0.7638430595397949,"545":1.8058645725250244,"546":-4.944892883300781,"547":-4.905776500701904,"548":-0.28090035915374756,"549":-2.0764667987823486,"550":-2.4950132369995117,"551":1.026949405670166,"552":-1.5048898458480835,"553":-4.146531105041504,"554":-0.14492376148700714,"555":-1.6531856060028076,"556":-1.4685567617416382,"557":1.677058219909668,"558":-4.534880638122559,"559":5.157680511474609,"560":-0.6173948645591736,"561":-1.893642544746399,"562":0.7305032014846802,"563":-0.26792022585868835,"564":4.499497890472412,"565":2.400618314743042,"566":1.9884220361709595,"567":-0.5162298679351807,"568":0.6481559872627258,"569":-0.5570062398910522,"570":-1.4678181409835815,"571":0.40712741017341614,"572":0.35075101256370544,"573":1.1858606338500977,"574":-0.07032882422208786,"575":0.004244622308760881,"576":-0.8790473341941833,"577":-2.7785286903381348,"578":2.366921901702881,"579":1.7537695169448853,"580":-2.420816659927368,"581":-0.3948933482170105,"582":-0.05667991191148758,"583":2.5718178749084473,"584":2.432551383972168,"585":-1.3460267782211304,"586":-0.6988967657089233,"587":1.4867682456970215,"588":-1.6506963968276978,"589":0.4107491374015808,"590":0.298480749130249,"591":0.7073869705200195,"592":-1.056126356124878,"593":2.005222797393799,"594":0.11532541364431381,"595":-1.6473232507705688,"596":4.332254886627197,"597":-1.442535400390625,"598":-7.048267364501953,"599":6.19664192199707,"600":1.3886219263076782,"601":0.0075463708490133286,"602":2.370201349258423,"603":-1.8195356130599976,"604":3.9609785079956055,"605":1.0472803115844727,"606":-2.8856515884399414,"607":-1.113908052444458,"608":-2.758054733276367,"609":-4.759230136871338,"610":0.3953026235103607,"611":-3.647867441177368,"612":-5.4417314529418945,"613":3.5951626300811768,"614":-0.5325188636779785,"615":-0.744685709476471,"616":2.5466926097869873,"617":-0.4393201470375061,"618":-0.3701273202896118,"619":2.027909517288208,"620":-0.3162648677825928,"621":-1.733389139175415,"622":2.5525076389312744,"623":-8.941841125488281,"624":-0.8877369165420532,"625":-2.943526029586792,"626":3.11441969871521,"627":2.2807199954986572,"628":-1.1305416822433472,"629":0.8088729977607727,"630":1.1303761005401611,"631":-1.6681612730026245,"632":-0.3456697165966034,"633":2.612898111343384,"634":3.6066086292266846,"635":3.2947099208831787,"636":2.3345730304718018,"637":1.7939608097076416,"638":4.032785892486572,"639":-1.2937507629394531,"640":4.67643404006958,"641":1.807534098625183,"642":0.6753436923027039,"643":4.127911567687988,"644":4.531671524047852,"645":-3.1684701442718506,"646":0.4648418426513672,"647":-0.5755670666694641,"648":3.439441442489624,"649":-3.001279830932617,"650":-0.1728818267583847,"651":-2.939878225326538,"652":-0.36108818650245667,"653":3.8541929721832275,"654":0.6634217500686646,"655":-1.0586259365081787,"656":-0.13724243640899658,"657":-1.08255136013031,"658":2.9646921157836914,"659":1.2844722270965576,"660":-0.5123769640922546,"661":-0.33959636092185974,"662":-1.3633710145950317,"663":5.937983512878418,"664":-0.7996585965156555,"665":2.418374538421631,"666":-4.010335445404053,"667":2.8960964679718018,"668":1.749819040298462,"669":3.448485851287842,"670":2.625633955001831,"671":1.038250207901001,"672":1.5373518466949463,"673":2.793328285217285,"674":-6.235036373138428,"675":0.3770464360713959,"676":-2.9660730361938477,"677":-1.1338790655136108,"678":-0.931908905506134,"679":-2.308375835418701,"680":-1.1741528511047363,"681":1.7281479835510254,"682":-0.9271993637084961,"683":-1.4695680141448975,"684":1.0484830141067505,"685":-1.4117342233657837,"686":2.770907163619995,"687":-1.1239668130874634,"688":1.8014867305755615,"689":-5.532989978790283,"690":0.8254498839378357,"691":-1.2629324197769165,"692":-1.831100583076477,"693":1.0889708995819092,"694":-2.10895037651062,"695":-3.0047948360443115,"696":-1.7026103734970093,"697":-0.9714529514312744,"698":2.7628014087677,"699":-0.8916468024253845,"700":-0.6722489595413208,"701":0.7786273956298828,"702":-0.21052317321300507,"703":2.599123239517212,"704":-1.1759567260742188,"705":-0.38461771607398987,"706":-0.7102712988853455,"707":1.996646761894226,"708":1.438394546508789,"709":-0.7266249060630798,"710":-0.17567898333072662,"711":-0.21309663355350494,"712":-0.9146795272827148,"713":-1.0328691005706787,"714":-2.359257221221924,"715":-0.18373124301433563,"716":-2.3630025386810303,"717":-2.6243340969085693,"718":-1.4034430980682373,"719":1.8336886167526245,"720":-0.34589216113090515,"721":0.11875038594007492,"722":0.06593107432126999,"723":-0.5995815396308899,"724":-1.3775743246078491,"725":0.049342356622219086,"726":-1.598481297492981,"727":-2.834554672241211,"728":-0.4119741916656494,"729":2.163572072982788,"730":-3.5879507064819336,"731":-2.3646087646484375,"732":-0.2598039507865906,"733":-0.7562987804412842,"734":2.4671714305877686,"735":0.3502466678619385,"736":-2.4792816638946533,"737":0.8643708825111389,"738":-1.143637776374817,"739":1.2531912326812744,"740":-1.7370415925979614,"741":-0.9074386358261108,"742":-0.6201471090316772,"743":1.5550488233566284,"744":-1.0036907196044922,"745":-1.1920204162597656,"746":0.6171979904174805,"747":0.7077370882034302,"748":0.9005100727081299,"749":-2.7271859645843506,"750":-0.5556145310401917,"751":-3.7628443241119385,"752":-0.4360993802547455,"753":1.9560002088546753,"754":-1.802251935005188,"755":-0.27064263820648193,"756":3.6239755153656006,"757":-0.6999377608299255,"758":-0.839432418346405,"759":0.18597343564033508,"760":-0.6676874756813049,"761":-2.852754831314087,"762":1.32253897190094,"763":-1.0205918550491333,"764":1.9422392845153809,"765":-0.17355549335479736,"766":1.526799201965332,"767":2.5727126598358154,"768":-2.061838150024414,"769":0.4839867949485779,"770":-0.8893848061561584,"771":2.3517580032348633,"772":-0.35189318656921387,"773":4.564213752746582,"774":5.330933570861816,"775":4.073765277862549,"776":-1.0419788360595703,"777":0.5843353867530823,"778":-0.2657514214515686,"779":-1.9410558938980103,"780":-1.0160950422286987,"781":-0.5487147569656372,"782":2.3280489444732666,"783":0.4827969968318939,"784":-1.174116849899292,"785":-4.016502857208252,"786":-0.8697657585144043,"787":1.7765487432479858,"788":-1.6689950227737427,"789":-6.447114944458008,"790":3.8646416664123535,"791":-2.9049720764160156,"792":-4.269539833068848,"793":-1.2423701286315918,"794":-2.765279531478882,"795":-4.2898030281066895,"796":4.022594928741455,"797":1.0983911752700806,"798":0.9899338483810425,"799":0.3312205672264099,"800":1.3459608554840088,"801":-1.3912230730056763,"802":0.5118612051010132,"803":0.16128887236118317,"804":3.8028757572174072,"805":2.930652141571045,"806":2.583279609680176,"807":-1.6041921377182007,"808":-3.7284300327301025,"809":3.5461032390594482,"810":-0.8127826452255249,"811":-0.4335407614707947,"812":-2.3806698322296143,"813":0.5837777256965637,"814":3.138070583343506,"815":-1.0428951978683472,"816":0.27376842498779297,"817":-4.515875816345215,"818":2.6059069633483887,"819":1.900300145149231,"820":1.9447004795074463,"821":3.327693462371826,"822":-0.9709954261779785,"823":0.6056311726570129,"824":1.1489694118499756,"825":-0.211176335811615,"826":0.6668592095375061,"827":3.7347280979156494,"828":-0.8370187878608704,"829":0.7354145050048828,"830":2.609110116958618,"831":6.006342887878418,"832":2.126560926437378,"833":-0.4134121239185333,"834":1.9346773624420166,"835":1.1294041872024536,"836":-3.4447126388549805,"837":0.14539571106433868,"838":6.727709770202637,"839":1.048574447631836,"840":0.0022176362108439207,"841":-1.1507806777954102,"842":0.3548275828361511,"843":1.1353328227996826,"844":0.7335318326950073,"845":0.6048641204833984,"846":0.9511376023292542,"847":0.8348627686500549,"848":1.7889883518218994,"849":-0.6318157315254211,"850":0.588901937007904,"851":1.1069269180297852,"852":0.7061892151832581,"853":1.2032121419906616,"854":1.2448046207427979,"855":-1.0479000806808472,"856":-0.07014621049165726,"857":0.03658125922083855,"858":2.041837215423584,"859":-0.1789456605911255,"860":-0.8052922487258911,"861":-0.2800101637840271,"862":0.5871184468269348,"863":1.4382132291793823,"864":0.4843548536300659,"865":-0.30717769265174866,"866":-0.08922743052244186,"867":0.056397125124931335,"868":0.1413506716489792,"869":-0.01641857996582985,"870":-0.14574122428894043,"871":0.09945990890264511,"872":-1.5510201454162598,"873":1.2007712125778198,"874":0.9437833428382874,"875":3.202505588531494,"876":-0.5803512334823608,"877":-0.7164682149887085,"878":-2.104583978652954,"879":-0.5507960319519043,"880":0.6019949316978455,"881":-0.14590932428836823,"882":-2.288156747817993,"883":0.8115290403366089,"884":0.20294158160686493,"885":6.508746147155762,"886":4.071661949157715,"887":2.896075487136841,"888":2.407484769821167,"889":3.4436025619506836,"890":-2.376607894897461,"891":4.043437480926514,"892":-1.4503037929534912,"893":-1.9635639190673828,"894":-5.2105278968811035,"895":3.0765373706817627,"896":-3.9625942707061768,"897":7.459602355957031,"898":-0.44805264472961426,"899":2.682283639907837,"900":4.800329685211182,"901":5.879158020019531,"902":4.861308574676514,"903":-0.33237847685813904,"904":-2.3542778491973877,"905":1.3482474088668823,"906":-1.4415568113327026,"907":2.9214727878570557,"908":4.209685802459717,"909":6.709571838378906,"910":-0.727719247341156,"911":-0.9400227665901184,"912":-0.6539890766143799,"913":2.091093063354492,"914":2.352201223373413,"915":0.5711169838905334,"916":-0.8307511210441589,"917":0.24642395973205566,"918":0.1575843095779419,"919":-0.15675491094589233,"920":0.24175739288330078,"921":1.0696210861206055,"922":0.3940448462963104,"923":1.1521509885787964,"924":1.6699961423873901,"925":-1.9432425498962402,"926":0.10504669696092606,"927":1.1689343452453613,"928":1.6434189081192017,"929":-0.16490566730499268,"930":1.1646463871002197,"931":-2.4559926986694336,"932":-0.8103818893432617,"933":2.216139316558838,"934":-1.25715172290802,"935":-1.832772135734558,"936":0.6016721129417419,"937":-1.0305379629135132,"938":1.185472011566162,"939":1.2896124124526978,"940":-0.9731261730194092,"941":-2.261463165283203,"942":-3.3591318130493164,"943":0.3391946852207184,"944":0.021827533841133118,"945":2.121412992477417,"946":-0.7970198392868042,"947":3.7812001705169678,"948":-0.013078074902296066,"949":1.3147531747817993,"950":-1.8603618144989014,"951":2.9431569576263428,"952":1.9465123414993286,"953":1.5112131834030151,"954":2.8034048080444336,"955":0.7127097845077515,"956":-1.6579111814498901,"957":3.669903039932251,"958":1.765616536140442,"959":-1.4001935720443726,"960":3.8561835289001465,"961":-2.6101765632629395,"962":-1.236027479171753,"963":4.34959077835083,"964":5.636284828186035,"965":1.8662052154541016,"966":-0.8534430861473083,"967":-7.762153148651123,"968":3.6954610347747803,"969":0.5634073615074158,"970":-0.2009538859128952,"971":-7.242356300354004,"972":-4.702321529388428,"973":-3.4966092109680176,"974":0.731473982334137,"975":-2.8522732257843018,"976":2.0699527263641357,"977":-1.8146400451660156,"978":-2.126695394515991,"979":-4.833259105682373,"980":0.6195624470710754,"981":-3.104273557662964,"982":0.12617811560630798,"983":0.8351135849952698,"984":2.0509231090545654,"985":-0.9723212718963623,"986":2.4945099353790283,"987":-0.19713258743286133,"988":2.168501615524292,"989":-2.729861259460449,"990":3.360741376876831,"991":1.1397053003311157,"992":-1.2076890468597412,"993":1.5703020095825195,"994":3.638094186782837,"995":-1.8238961696624756,"996":1.5435245037078857,"997":0.8161954879760742,"998":1.1798789501190186,"999":-0.8596782088279724,"1000":0.02200806699693203,"1001":-1.9027143716812134,"1002":0.0379888154566288,"1003":1.3474875688552856,"1004":0.7512972950935364,"1005":-1.2682727575302124,"1006":1.4694997072219849,"1007":-1.2823306322097778,"1008":2.121915340423584,"1009":0.6899491548538208,"1010":-2.1545910835266113,"1011":-1.1525607109069824,"1012":-0.34239304065704346,"1013":2.3603429794311523,"1014":0.5210111141204834,"1015":-0.49228665232658386,"1016":-0.4789482653141022,"1017":-0.6010236740112305,"1018":1.511069655418396,"1019":2.8065710067749023,"1020":-0.4783194363117218,"1021":-0.9499608278274536,"1022":-0.6852834820747375,"1023":0.9502267837524414,"1024":0.11124294996261597,"1025":0.8468812108039856,"1026":-0.1153072863817215,"1027":1.5129098892211914,"1028":2.2453949451446533,"1029":1.6683017015457153,"1030":-0.2629886269569397,"1031":-0.3629603683948517,"1032":0.9888969659805298,"1033":2.353473424911499,"1034":-0.15679074823856354,"1035":-0.13604708015918732,"1036":-0.2246439903974533,"1037":-0.25772830843925476,"1038":2.025590419769287,"1039":-0.7105342149734497,"1040":-1.67917799949646,"1041":0.5496591925621033,"1042":-0.5287352800369263,"1043":1.2810301780700684,"1044":0.8173786401748657,"1045":-0.22532278299331665,"1046":-0.9888282418251038,"1047":-1.6219297647476196,"1048":0.10555244237184525,"1049":0.6841445565223694,"1050":-1.249799132347107,"1051":0.7237287163734436,"1052":-2.96209716796875,"1053":1.1262742280960083,"1054":3.0622260570526123,"1055":-1.0761722326278687,"1056":-0.7370908260345459,"1057":-0.4974602162837982,"1058":1.932335615158081,"1059":0.9674453139305115,"1060":2.72617769241333,"1061":-0.27538836002349854,"1062":1.2480589151382446,"1063":1.2064251899719238,"1064":1.301262617111206,"1065":-1.65450119972229,"1066":1.4992471933364868,"1067":0.18409471213817596,"1068":2.094472885131836,"1069":-1.4087188243865967,"1070":-0.5461569428443909,"1071":0.7734160423278809,"1072":-2.036395788192749,"1073":2.158637762069702,"1074":1.7214953899383545,"1075":-1.3327876329421997,"1076":2.182631254196167,"1077":-1.403217077255249,"1078":1.2484281063079834,"1079":0.10836119204759598,"1080":1.2739466428756714,"1081":-2.343709707260132,"1082":-2.465039014816284,"1083":0.1429246962070465,"1084":1.2853761911392212,"1085":-0.8219103813171387,"1086":-0.8433763980865479,"1087":-0.29319727420806885,"1088":0.7567881345748901,"1089":1.4064640998840332,"1090":1.237315058708191,"1091":3.1559667587280273,"1092":-0.09471824020147324,"1093":2.5338943004608154,"1094":-0.8373140096664429,"1095":1.054120659828186,"1096":-2.0812790393829346,"1097":0.01967628486454487,"1098":0.7868987321853638,"1099":-0.003235948272049427,"1100":-0.4255434572696686,"1101":2.0128979682922363,"1102":0.6741138696670532,"1103":0.5004768967628479,"1104":-0.2333776354789734,"1105":-1.6529091596603394,"1106":-1.255327582359314,"1107":-0.15926307439804077,"1108":-0.9675348997116089,"1109":0.37467771768569946,"1110":-0.5002949237823486,"1111":-0.295613557100296,"1112":-1.5216656923294067,"1113":-0.22695808112621307,"1114":-0.5398654341697693,"1115":-0.3584417998790741,"1116":-1.3605903387069702,"1117":0.3359625041484833,"1118":1.798511266708374,"1119":0.07976343482732773,"1120":-2.31070876121521,"1121":4.749706745147705,"1122":-11.918907165527344,"1123":3.4116952419281006,"1124":1.8334342241287231,"1125":-1.3808469772338867,"1126":5.715380668640137,"1127":13.818075180053711,"1128":-3.252075672149658,"1129":1.405126929283142,"1130":3.918668270111084,"1131":-3.563149929046631,"1132":-3.716364622116089,"1133":-0.7125980257987976,"1134":6.078204154968262,"1135":-6.7294816970825195,"1136":-2.4298648834228516,"1137":-7.232142448425293,"1138":10.810174942016602,"1139":-4.53373384475708,"1140":3.3749337196350098,"1141":-2.785238742828369,"1142":6.343900203704834,"1143":1.0863934755325317,"1144":-2.202720880508423,"1145":2.4198696613311768,"1146":9.567534446716309,"1147":-8.824966430664062,"1148":-3.4940953254699707,"1149":0.2681051790714264,"1150":-1.9643025398254395,"1151":-7.554133415222168,"1152":-0.27517592906951904,"1153":7.6721415519714355,"1154":1.2432050704956055,"1155":-2.1163384914398193,"1156":-0.8134307861328125,"1157":-0.005668471567332745,"1158":2.511522054672241,"1159":1.6236896514892578,"1160":1.5421298742294312,"1161":1.6437504291534424,"1162":1.419692873954773,"1163":1.182492971420288,"1164":-2.76251220703125,"1165":-1.0352997779846191,"1166":0.8422251343727112,"1167":0.6315156817436218,"1168":2.972543239593506,"1169":1.9751472473144531,"1170":-0.996284544467926,"1171":0.012926829978823662,"1172":1.749070405960083,"1173":2.4469969272613525,"1174":1.565868616104126,"1175":0.15689851343631744,"1176":0.5205414295196533,"1177":0.6768949627876282,"1178":2.603928565979004,"1179":-0.12255628407001495,"1180":-1.8985555171966553,"1181":-0.1733270287513733,"1182":-0.44275426864624023,"1183":1.4654130935668945,"1184":0.8605859279632568,"1185":0.9192507266998291,"1186":-0.9578086733818054,"1187":-2.7270925045013428,"1188":1.7692116498947144,"1189":1.504171371459961,"1190":-0.43872594833374023,"1191":-0.2190885990858078,"1192":1.0777571201324463,"1193":-0.04132302105426788,"1194":-1.022826910018921,"1195":0.03947664052248001,"1196":1.4342941045761108,"1197":0.4665953814983368,"1198":0.8473548293113708,"1199":-0.7365055680274963,"1200":-1.5223973989486694,"1201":1.5394467115402222,"1202":0.4190452992916107,"1203":0.11954204738140106,"1204":0.374988317489624,"1205":-1.1506255865097046,"1206":0.3580157160758972,"1207":0.19294917583465576,"1208":0.3722500801086426,"1209":-0.9416376948356628,"1210":0.41720250248908997,"1211":-0.48108190298080444,"1212":1.1280566453933716,"1213":0.06925470381975174,"1214":0.8113846182823181,"1215":0.7151506543159485,"1216":0.8495617508888245,"1217":-0.8707150816917419,"1218":-0.7300547361373901,"1219":-2.003439426422119,"1220":1.2616196870803833,"1221":-0.2304917871952057,"1222":0.3168477416038513,"1223":-0.28335079550743103,"1224":0.712087869644165,"1225":-0.030026178807020187,"1226":-0.011733181774616241,"1227":-0.03763461112976074,"1228":0.004820652771741152,"1229":-0.04007936269044876,"1230":-0.01052667386829853,"1231":-0.043663978576660156,"1232":-0.03255527839064598,"1233":-0.04361501336097717,"1234":-0.026425542309880257,"1235":0.002861566375941038,"1236":0.0357096791267395,"1237":0.00233741314150393,"1238":-0.00224757706746459,"1239":-0.014856081455945969,"1240":-0.03307616338133812,"1241":0.011976939626038074,"1242":-0.023049935698509216,"1243":-0.000059363796026445925,"1244":-0.02113419398665428,"1245":0.04181463643908501,"1246":-0.0393073596060276,"1247":-0.01364330854266882,"1248":0.013987695798277855,"1249":-0.009783599525690079,"1250":0.008108893409371376,"1251":-0.0022328216582536697,"1252":0.003477197838947177,"1253":0.020846709609031677,"1254":0.003367282450199127,"1255":0.000824201968498528,"1256":0.014120252802968025,"1257":-0.025041021406650543,"1258":0.010881061665713787,"1259":0.04009338468313217}},"hiddenLayers":[{"inputMatrix":{"rows":20,"columns":35,"weights":{"0":0.38563525676727295,"1":0.2718179225921631,"2":0.23847320675849915,"3":-0.21396484971046448,"4":-0.2809692919254303,"5":0.3900534510612488,"6":0.35730239748954773,"7":-0.10396130383014679,"8":0.5689319372177124,"9":-0.5081836581230164,"10":-0.2225320041179657,"11":-0.05870749428868294,"12":-0.3955826759338379,"13":0.6972681283950806,"14":-0.7407381534576416,"15":-0.0022586805280297995,"16":0.22222407162189484,"17":0.26487353444099426,"18":0.008380942046642303,"19":-0.263351172208786,"20":-0.3062385320663452,"21":0.0061826640740036964,"22":0.563987135887146,"23":0.5737876296043396,"24":-0.4421117305755615,"25":-0.3045804798603058,"26":0.1442141979932785,"27":-0.6479701399803162,"28":0.04514361917972565,"29":0.028071213513612747,"30":0.02034766599535942,"31":-0.11943197250366211,"32":0.08145623654127121,"33":0.19493235647678375,"34":0.3428992033004761,"35":-0.6403645277023315,"36":-0.2270171344280243,"37":0.3726422190666199,"38":-0.33300238847732544,"39":-0.22719675302505493,"40":0.46538764238357544,"41":-0.4831489026546478,"42":-0.0014304682845249772,"43":-0.18687859177589417,"44":-0.3305666446685791,"45":-0.11938877403736115,"46":0.0941028892993927,"47":-0.7739806771278381,"48":0.2066444307565689,"49":-0.37477055191993713,"50":0.015572906471788883,"51":-0.6112083792686462,"52":0.19967536628246307,"53":-0.973180890083313,"54":0.025411948561668396,"55":-0.022885272279381752,"56":-0.47554001212120056,"57":-0.3929210901260376,"58":-0.007241002283990383,"59":-0.21180729568004608,"60":-1.2243199348449707,"61":-0.08759736269712448,"62":-0.487753301858902,"63":-0.3869369328022003,"64":-0.15946254134178162,"65":-0.22852709889411926,"66":-0.05315302312374115,"67":-0.6743175387382507,"68":0.3703295886516571,"69":-0.5817379951477051,"70":0.9160106778144836,"71":0.6119126677513123,"72":0.08352586627006531,"73":0.07343636453151703,"74":0.6975992321968079,"75":0.7117515206336975,"76":-0.7521464824676514,"77":0.20238961279392242,"78":-0.6435161232948303,"79":-0.5701726675033569,"80":0.5298300981521606,"81":-0.5897750854492188,"82":0.6298898458480835,"83":-0.48075300455093384,"84":0.16122429072856903,"85":0.1877686083316803,"86":-0.04122747480869293,"87":0.1393517702817917,"88":-0.4003603458404541,"89":-0.022056657820940018,"90":0.3003900647163391,"91":-0.6061906814575195,"92":1.0075565576553345,"93":-0.23173734545707703,"94":-0.6780778765678406,"95":0.9208790063858032,"96":0.8477440476417542,"97":-0.13092924654483795,"98":-0.6998296976089478,"99":0.9119032025337219,"100":0.09074540436267853,"101":0.20970788598060608,"102":0.07811813801527023,"103":0.3567344844341278,"104":0.3353482782840729,"105":-0.3281058669090271,"106":0.2374677062034607,"107":0.08341938257217407,"108":-0.22896750271320343,"109":-0.270238995552063,"110":0.6334763169288635,"111":0.06013450399041176,"112":0.4812752306461334,"113":-1.1766993999481201,"114":-0.23886622488498688,"115":-0.04912754148244858,"116":-0.861249566078186,"117":-0.12848696112632751,"118":0.4490361213684082,"119":-0.17723824083805084,"120":-0.06309579312801361,"121":-0.05086170509457588,"122":0.7508823275566101,"123":-0.01016460731625557,"124":0.2477637231349945,"125":0.4089195728302002,"126":-0.43775007128715515,"127":0.0869530662894249,"128":-0.1273421347141266,"129":-0.37972232699394226,"130":-0.4342382550239563,"131":-0.1267804503440857,"132":-0.30614063143730164,"133":-0.2094518095254898,"134":0.35784098505973816,"135":-0.006093887612223625,"136":-0.641664445400238,"137":-0.9758277535438538,"138":-0.038745079189538956,"139":0.23458756506443024,"140":-0.6668702363967896,"141":-0.12759192287921906,"142":0.21807461977005005,"143":0.1789250671863556,"144":-0.04637226462364197,"145":-0.23057061433792114,"146":0.5053890943527222,"147":-0.5335460305213928,"148":-0.3607584536075592,"149":0.19550879299640656,"150":0.4885301887989044,"151":-0.13766418397426605,"152":0.5135188698768616,"153":-0.007461817003786564,"154":0.2570693790912628,"155":0.34270015358924866,"156":0.3506922125816345,"157":0.009776757098734379,"158":0.48691996932029724,"159":-0.5596950054168701,"160":0.3024570643901825,"161":-0.6515674591064453,"162":-0.4367431700229645,"163":-0.23137541115283966,"164":0.6939058303833008,"165":0.6520722508430481,"166":0.13415145874023438,"167":-0.2667572498321533,"168":0.18166372179985046,"169":0.6199479103088379,"170":0.12367641180753708,"171":0.5154992938041687,"172":0.664726972579956,"173":-0.21980783343315125,"174":-0.411935031414032,"175":-0.10831398516893387,"176":0.48676764965057373,"177":-0.7782619595527649,"178":0.3527671992778778,"179":0.0775415226817131,"180":-0.22111913561820984,"181":0.055517178028821945,"182":-0.20949199795722961,"183":0.413017213344574,"184":-1.0488805770874023,"185":0.35569047927856445,"186":-0.016329068690538406,"187":-0.2902123034000397,"188":-0.4622257351875305,"189":0.03822297602891922,"190":0.1900152713060379,"191":-0.3331916630268097,"192":-0.308817595243454,"193":1.036620020866394,"194":0.04023699462413788,"195":0.7361312508583069,"196":0.21938055753707886,"197":-0.36786362528800964,"198":0.5281806588172913,"199":0.42858514189720154,"200":0.9254345297813416,"201":-0.29012832045555115,"202":0.9422499537467957,"203":0.5215647220611572,"204":0.6578628420829773,"205":0.374726265668869,"206":0.3358808159828186,"207":0.5630687475204468,"208":-0.3671937882900238,"209":0.056182511150836945,"210":0.39923134446144104,"211":0.4808666408061981,"212":-0.2052198052406311,"213":-0.49048516154289246,"214":-0.28048762679100037,"215":-0.3997817039489746,"216":0.44825980067253113,"217":-0.18935956060886383,"218":-0.22044780850410461,"219":-0.08418545126914978,"220":-0.4796540439128876,"221":-0.9751840233802795,"222":-0.3281934857368469,"223":0.436924010515213,"224":-0.19382686913013458,"225":-0.22427161037921906,"226":0.2669873833656311,"227":-0.061366960406303406,"228":0.7913292646408081,"229":-0.5069275498390198,"230":0.16570912301540375,"231":0.8365060091018677,"232":-0.4550413191318512,"233":-0.059384457767009735,"234":-0.06766416877508163,"235":0.2892335057258606,"236":0.5460371971130371,"237":0.0868932232260704,"238":0.44909754395484924,"239":0.808278501033783,"240":-0.2752825617790222,"241":-0.43408408761024475,"242":-0.7898004055023193,"243":0.18406397104263306,"244":0.6225156188011169,"245":-0.2107783406972885,"246":0.13999171555042267,"247":0.6456719636917114,"248":-0.4350121319293976,"249":0.28521934151649475,"250":0.7603480219841003,"251":-0.6157975196838379,"252":-0.12808650732040405,"253":0.10006759315729141,"254":-0.8230144381523132,"255":0.4743025004863739,"256":-0.8336087465286255,"257":0.1296842396259308,"258":0.07400844991207123,"259":0.8206666111946106,"260":0.8940485715866089,"261":0.38078945875167847,"262":-0.3741809129714966,"263":-0.009060241281986237,"264":-0.15535104274749756,"265":0.9901891350746155,"266":-0.7171351313591003,"267":-0.4745122492313385,"268":0.03444387763738632,"269":0.7258892059326172,"270":0.5844908356666565,"271":0.28922832012176514,"272":-0.2079828381538391,"273":-0.3680509924888611,"274":0.5359301567077637,"275":-0.1615908443927765,"276":-0.25165489315986633,"277":0.02383982576429844,"278":0.1336052566766739,"279":0.39506739377975464,"280":0.003061888972297311,"281":-0.7427563071250916,"282":-0.211002379655838,"283":-0.5955203175544739,"284":-0.22089432179927826,"285":0.5927419066429138,"286":-0.4219650626182556,"287":0.6130110025405884,"288":0.5438326597213745,"289":-0.3642294108867645,"290":0.7664515376091003,"291":-0.23463524878025055,"292":0.24639271199703217,"293":0.2771216630935669,"294":1.0967581272125244,"295":0.05231838673353195,"296":-0.2576751410961151,"297":-0.44059228897094727,"298":1.1869398355484009,"299":0.46263909339904785,"300":0.32577234506607056,"301":-0.21760399639606476,"302":-0.7681575417518616,"303":-0.4868258535861969,"304":-0.02371763251721859,"305":-0.694444477558136,"306":0.17031316459178925,"307":-0.14621345698833466,"308":0.593529224395752,"309":0.2595721483230591,"310":-1.07991361618042,"311":1.2089293003082275,"312":-0.3510763943195343,"313":0.008175748400390148,"314":-0.3269135653972626,"315":0.1988566815853119,"316":-0.23839056491851807,"317":0.09140512347221375,"318":-0.19533252716064453,"319":-0.38861796259880066,"320":-0.30002859234809875,"321":0.2484857439994812,"322":-0.10827358812093735,"323":-0.10272891074419022,"324":-0.014278458431363106,"325":-0.019168591126799583,"326":-1.4979366064071655,"327":-0.07332606613636017,"328":0.23302742838859558,"329":0.8507654666900635,"330":-0.13083529472351074,"331":0.19228559732437134,"332":0.09750472754240036,"333":-0.09598684310913086,"334":-0.624115526676178,"335":0.13651670515537262,"336":0.12927444279193878,"337":-0.14260980486869812,"338":-0.35552725195884705,"339":-0.12297172099351883,"340":0.6326376795768738,"341":-0.31921011209487915,"342":-0.5536582469940186,"343":-0.40149006247520447,"344":0.34227773547172546,"345":0.0026135905645787716,"346":0.1564808189868927,"347":-1.1108735799789429,"348":-0.3264584243297577,"349":0.3977728486061096,"350":0.4609829783439636,"351":-0.13929206132888794,"352":-0.3924398422241211,"353":-0.18193458020687103,"354":-0.7459718585014343,"355":-0.15999983251094818,"356":0.109922856092453,"357":-0.06815720349550247,"358":-0.24384284019470215,"359":0.11637721210718155,"360":0.5220997929573059,"361":-1.3388530015945435,"362":0.1494106948375702,"363":0.65908282995224,"364":-0.22786429524421692,"365":-0.33508169651031494,"366":0.6598398089408875,"367":0.16469909250736237,"368":0.22877292335033417,"369":-0.8419773578643799,"370":-0.02332654781639576,"371":-0.00467710942029953,"372":0.07754195481538773,"373":0.1991235315799713,"374":-0.6397714018821716,"375":-0.08447720110416412,"376":-0.05147730931639671,"377":-0.29312339425086975,"378":-0.18667706847190857,"379":0.9272045493125916,"380":-0.2814215421676636,"381":0.1396263688802719,"382":-0.7666982412338257,"383":-0.5420926213264465,"384":0.41749221086502075,"385":1.1678820848464966,"386":-0.2718171179294586,"387":0.01033515390008688,"388":-0.2811588644981384,"389":-0.8192371129989624,"390":0.6283217072486877,"391":-0.05563537776470184,"392":0.05806352570652962,"393":0.1413273811340332,"394":-0.18453262746334076,"395":0.0999777764081955,"396":-0.2985803484916687,"397":0.5377546548843384,"398":0.41665151715278625,"399":-0.7668985724449158,"400":0.07367219030857086,"401":0.6233522295951843,"402":0.4607178866863251,"403":-0.35672837495803833,"404":-0.1484706699848175,"405":0.23203086853027344,"406":-0.20011699199676514,"407":0.33092737197875977,"408":0.09978828579187393,"409":-0.5709783434867859,"410":0.6754474639892578,"411":0.8301510810852051,"412":-0.5910851955413818,"413":0.02197727933526039,"414":-0.08418469876050949,"415":0.1495925635099411,"416":-0.041429974138736725,"417":-0.30570343136787415,"418":0.06171102076768875,"419":0.4861825406551361,"420":0.05707264319062233,"421":-0.3602510988712311,"422":-0.3438427150249481,"423":-0.38533592224121094,"424":-0.682631254196167,"425":0.4597657322883606,"426":-0.13584139943122864,"427":0.40346378087997437,"428":0.5361035466194153,"429":0.017023755237460136,"430":-0.6041961312294006,"431":-0.14164483547210693,"432":-0.22458970546722412,"433":0.731738805770874,"434":0.046528030186891556,"435":-0.05598771572113037,"436":-0.15498390793800354,"437":0.06840721517801285,"438":0.09087496250867844,"439":0.2610526978969574,"440":-0.07005269825458527,"441":0.12391483038663864,"442":0.49118825793266296,"443":0.18974153697490692,"444":-1.1583141088485718,"445":-0.6220653653144836,"446":0.20466731488704681,"447":-0.8823151588439941,"448":-0.7609066963195801,"449":0.1446637213230133,"450":-0.21671506762504578,"451":0.13968153297901154,"452":-0.45892825722694397,"453":-0.11920560151338577,"454":0.5728229880332947,"455":-0.08656217902898788,"456":-0.7448620796203613,"457":-0.04302419349551201,"458":0.4063945412635803,"459":-0.07592567056417465,"460":0.43211713433265686,"461":-0.3790603578090668,"462":0.20251549780368805,"463":0.24055452644824982,"464":-0.36885130405426025,"465":0.09028748422861099,"466":0.09623246639966965,"467":-0.1628425419330597,"468":-0.8658448457717896,"469":-0.21076105535030365,"470":-0.045894425362348557,"471":-0.39873188734054565,"472":0.2124774008989334,"473":-0.30045706033706665,"474":-0.04008976370096207,"475":-0.09057044982910156,"476":-0.466156005859375,"477":0.8584648370742798,"478":-1.5123201608657837,"479":0.021217167377471924,"480":0.23477110266685486,"481":-0.06906164437532425,"482":-0.4386383891105652,"483":-0.5762146711349487,"484":0.003916146699339151,"485":-0.9061468243598938,"486":1.455391526222229,"487":-0.20159366726875305,"488":0.11626706272363663,"489":0.05600769445300102,"490":-0.15588146448135376,"491":0.15166138112545013,"492":-0.2526412010192871,"493":0.1823865920305252,"494":-0.24173790216445923,"495":0.01891278102993965,"496":-0.8001691699028015,"497":0.0932154729962349,"498":0.41616228222846985,"499":-0.5393299460411072,"500":0.2643353044986725,"501":-0.09480367600917816,"502":-0.4262116253376007,"503":-0.13642451167106628,"504":-0.6069313287734985,"505":-0.1816517859697342,"506":0.06684663891792297,"507":0.01947993040084839,"508":-0.12333684414625168,"509":-0.25839027762413025,"510":0.0420062318444252,"511":0.25502046942710876,"512":0.15535372495651245,"513":0.2261374145746231,"514":-0.5480037331581116,"515":-0.7324621081352234,"516":-0.34896743297576904,"517":-0.05781428515911102,"518":0.05244443938136101,"519":0.09046705067157745,"520":0.18803760409355164,"521":-0.1278470754623413,"522":0.05717543140053749,"523":0.42419132590293884,"524":-0.44385984539985657,"525":0.23697912693023682,"526":0.9031199216842651,"527":0.4939877986907959,"528":-0.36060070991516113,"529":0.264277845621109,"530":0.5334504246711731,"531":-0.18261806666851044,"532":-0.5111398696899414,"533":-0.36252719163894653,"534":-0.17227895557880402,"535":-0.4054679572582245,"536":-0.24160832166671753,"537":0.3799830675125122,"538":-0.09490498900413513,"539":0.28266236186027527,"540":0.35643866658210754,"541":-0.8530469536781311,"542":0.20726622641086578,"543":-0.31125032901763916,"544":-0.15066419541835785,"545":0.6114135384559631,"546":0.0533013716340065,"547":0.1913347989320755,"548":0.4919549524784088,"549":-0.1793588250875473,"550":0.36419492959976196,"551":0.24181120097637177,"552":-0.5317749977111816,"553":0.3467116355895996,"554":-0.7971982359886169,"555":0.31814709305763245,"556":-0.5429556369781494,"557":-0.0141145633533597,"558":0.051481571048498154,"559":-0.02023506537079811,"560":-0.5708441734313965,"561":-0.34786489605903625,"562":-0.41965943574905396,"563":-0.4077455997467041,"564":0.442815363407135,"565":-0.8621390461921692,"566":-0.13671624660491943,"567":0.2069009393453598,"568":0.8063009977340698,"569":-0.36064544320106506,"570":0.6010708212852478,"571":-0.17915068566799164,"572":-0.461850106716156,"573":-0.22267812490463257,"574":0.7242584228515625,"575":0.08273015171289444,"576":-0.1816178858280182,"577":-0.779015839099884,"578":-0.46585813164711,"579":-0.07208807021379471,"580":0.6912545561790466,"581":0.18612703680992126,"582":-0.7533041834831238,"583":0.20342878997325897,"584":0.15736381709575653,"585":-0.2736263871192932,"586":-0.21249817311763763,"587":0.33869510889053345,"588":0.5555984973907471,"589":0.06536055356264114,"590":0.11906468868255615,"591":0.5586726665496826,"592":0.00175033463165164,"593":0.32091712951660156,"594":0.10730689764022827,"595":-0.6217067837715149,"596":0.5284779667854309,"597":0.19345687329769135,"598":0.2594778537750244,"599":0.5838028788566589,"600":0.40774938464164734,"601":-0.1707727313041687,"602":0.3568773865699768,"603":-0.7435579299926758,"604":-0.32475030422210693,"605":0.8929101824760437,"606":0.33082130551338196,"607":0.01944132149219513,"608":-1.03922700881958,"609":0.8167438507080078,"610":-0.13334950804710388,"611":-0.3758632242679596,"612":0.2651609778404236,"613":0.06716655939817429,"614":0.39963385462760925,"615":0.27863311767578125,"616":0.04897983744740486,"617":-0.4060004949569702,"618":-0.601349949836731,"619":0.7322641611099243,"620":0.07364045083522797,"621":-0.04605529457330704,"622":0.41293787956237793,"623":0.10844072699546814,"624":0.27530550956726074,"625":-0.08650431036949158,"626":0.6442601084709167,"627":-0.2743019163608551,"628":-0.13492102921009064,"629":-0.014188025146722794,"630":-0.12402595579624176,"631":0.44249436259269714,"632":-0.17979313433170319,"633":-0.3129977881908417,"634":-0.5580291748046875,"635":0.5821974277496338,"636":0.1608005166053772,"637":-0.2521075904369354,"638":-0.7196372151374817,"639":0.4839746654033661,"640":-0.6815671920776367,"641":-0.36293768882751465,"642":-0.5951410531997681,"643":0.8449345827102661,"644":-0.6148333549499512,"645":0.4416792094707489,"646":0.08154603838920593,"647":0.3568402826786041,"648":0.44744086265563965,"649":-0.23140135407447815,"650":0.43376824259757996,"651":-0.06871315091848373,"652":-0.1614985466003418,"653":0.963089108467102,"654":-0.06344879418611526,"655":0.45377153158187866,"656":-0.20115645229816437,"657":-1.0571867227554321,"658":0.4718317687511444,"659":-0.174457386136055,"660":0.2157522588968277,"661":0.03146202489733696,"662":-0.17871716618537903,"663":0.11986972391605377,"664":0.0846564844250679,"665":0.09072350710630417,"666":0.3305955231189728,"667":0.0429062657058239,"668":-0.16313855350017548,"669":0.37009236216545105,"670":0.4512815475463867,"671":-0.232256218791008,"672":0.3180553913116455,"673":-0.10568878054618835,"674":-0.6059828400611877,"675":0.9934766888618469,"676":0.3636569380760193,"677":0.6710906028747559,"678":-0.5750105381011963,"679":0.5909126400947571,"680":-0.598308801651001,"681":0.22883427143096924,"682":0.31192460656166077,"683":0.3946820795536041,"684":0.24538537859916687,"685":-0.571199893951416,"686":0.015340114943683147,"687":0.28782007098197937,"688":-0.3902522623538971,"689":-0.24284429848194122,"690":0.20522750914096832,"691":0.36109402775764465,"692":-0.18470758199691772,"693":-0.5842921733856201,"694":-0.34092044830322266,"695":-0.36109235882759094,"696":0.11894521862268448,"697":-0.6364507675170898,"698":-0.18411853909492493,"699":0.1498618721961975}},"inputHidden":{"rows":20,"columns":20,"weights":{"0":-0.20455360412597656,"1":0.6969114542007446,"2":1.9967825412750244,"3":1.3453760147094727,"4":1.1860055923461914,"5":-1.0501325130462646,"6":-0.30019307136535645,"7":0.7569446563720703,"8":-0.5244852304458618,"9":0.3197983503341675,"10":0.6850331425666809,"11":0.24810145795345306,"12":1.1517432928085327,"13":-2.0641331672668457,"14":2.080765724182129,"15":-1.0837762355804443,"16":0.35810616612434387,"17":1.8595741987228394,"18":1.2898776531219482,"19":-2.0073115825653076,"20":-0.7137339115142822,"21":-2.055816888809204,"22":0.8273754715919495,"23":2.7744510173797607,"24":-0.7371478080749512,"25":1.304255485534668,"26":-0.5057052373886108,"27":0.6171581149101257,"28":-0.5313110947608948,"29":2.0766565799713135,"30":0.05767790600657463,"31":-0.17594896256923676,"32":1.7195581197738647,"33":-1.5959360599517822,"34":0.19115567207336426,"35":-2.8923580646514893,"36":-1.530380368232727,"37":-1.1234849691390991,"38":-0.037591658532619476,"39":0.31413617730140686,"40":-0.24702568352222443,"41":1.398332118988037,"42":0.9181994199752808,"43":0.5260011553764343,"44":0.03148997947573662,"45":0.48199036717414856,"46":-0.7683274745941162,"47":-2.3059825897216797,"48":-1.0172494649887085,"49":1.2896958589553833,"50":0.05185196176171303,"51":-2.1594204902648926,"52":1.441164493560791,"53":0.762242317199707,"54":0.13412921130657196,"55":-1.4367374181747437,"56":-0.6991943717002869,"57":-0.09026409685611725,"58":1.1995770931243896,"59":-0.0925297737121582,"60":-0.9117798805236816,"61":1.2927918434143066,"62":0.4681987166404724,"63":-1.079254388809204,"64":-0.15976200997829437,"65":0.09824922680854797,"66":-1.2025668621063232,"67":-0.4327166676521301,"68":-0.8886550664901733,"69":0.6726729869842529,"70":0.9862270355224609,"71":-0.6262991428375244,"72":1.3239929676055908,"73":0.7305973768234253,"74":1.631752610206604,"75":1.081570029258728,"76":-0.29126715660095215,"77":-1.1973090171813965,"78":0.7234213948249817,"79":0.11497926712036133,"80":-1.121448040008545,"81":-0.9074214100837708,"82":0.4454551935195923,"83":1.7660810947418213,"84":-0.4266434907913208,"85":0.3870241343975067,"86":-1.9691457748413086,"87":-0.8319457173347473,"88":0.17040133476257324,"89":0.3703661859035492,"90":0.3512389063835144,"91":-0.4087301194667816,"92":-1.4949429035186768,"93":-1.2626575231552124,"94":0.6808046102523804,"95":0.899675190448761,"96":-1.719582438468933,"97":0.6121455430984497,"98":2.1064817905426025,"99":-0.29672151803970337,"100":-0.2501469552516937,"101":-0.33738619089126587,"102":-0.002652849303558469,"103":0.48190686106681824,"104":1.2663673162460327,"105":-0.38079434633255005,"106":-0.663451611995697,"107":-1.3481998443603516,"108":-1.2991735935211182,"109":1.4441660642623901,"110":1.7973253726959229,"111":0.028355581685900688,"112":-1.2825356721878052,"113":-0.5742394328117371,"114":1.8960686922073364,"115":0.742447555065155,"116":-0.6889014840126038,"117":0.24033263325691223,"118":-1.1025540828704834,"119":0.6162805557250977,"120":1.4213972091674805,"121":0.284698486328125,"122":-0.06647124141454697,"123":0.4079311788082123,"124":-1.5768206119537354,"125":-0.41507139801979065,"126":1.175370454788208,"127":0.4295644760131836,"128":-0.36048468947410583,"129":2.060609817504883,"130":-0.24975959956645966,"131":-0.01567569561302662,"132":1.2647154331207275,"133":-0.3578876554965973,"134":0.9538342356681824,"135":-1.6596368551254272,"136":0.755614161491394,"137":1.0538378953933716,"138":0.09496679902076721,"139":-1.0104211568832397,"140":-2.200378179550171,"141":0.8409410715103149,"142":0.22173944115638733,"143":1.2747478485107422,"144":-0.46336930990219116,"145":0.1406095027923584,"146":0.6211892366409302,"147":0.6977632641792297,"148":-0.2413611114025116,"149":2.4051554203033447,"150":1.5752917528152466,"151":-0.6181862354278564,"152":-0.4674146771430969,"153":1.8020018339157104,"154":0.7121961712837219,"155":-0.337468683719635,"156":-1.4039188623428345,"157":-0.2744690477848053,"158":0.6558902263641357,"159":-0.4366610050201416,"160":0.3746509850025177,"161":-0.9228764176368713,"162":0.4339407980442047,"163":0.8427520394325256,"164":-0.3573521077632904,"165":0.5941432118415833,"166":0.3545653522014618,"167":0.015236083418130875,"168":-0.6703798174858093,"169":-0.21372520923614502,"170":-0.9968734383583069,"171":0.2645876407623291,"172":0.6335909366607666,"173":-0.6145997047424316,"174":4.002950668334961,"175":-0.7338413000106812,"176":0.010432879440486431,"177":0.27967557311058044,"178":0.4588441252708435,"179":0.4364154636859894,"180":-0.15642313659191132,"181":-1.2332967519760132,"182":-0.3348694443702698,"183":1.3450579643249512,"184":-0.4342127740383148,"185":0.7162083387374878,"186":-0.38595056533813477,"187":1.656633734703064,"188":-1.5299230813980103,"189":-0.7440477609634399,"190":1.3626254796981812,"191":1.279935359954834,"192":-0.05362556129693985,"193":-0.00021832171478308737,"194":1.5692163705825806,"195":0.94951993227005,"196":-2.2315926551818848,"197":-3.0825858116149902,"198":-0.020512312650680542,"199":0.8227492570877075,"200":-0.32930541038513184,"201":-1.4450761079788208,"202":0.8575263023376465,"203":-0.7280095219612122,"204":0.5651769638061523,"205":-0.5377134680747986,"206":0.35974860191345215,"207":-0.25329577922821045,"208":-1.724704384803772,"209":-0.6254733204841614,"210":0.1828506886959076,"211":-0.28327676653862,"212":0.45623326301574707,"213":-1.9515076875686646,"214":1.7319073677062988,"215":0.6025063991546631,"216":-0.1860063225030899,"217":-0.2745429575443268,"218":1.7880958318710327,"219":-0.266846239566803,"220":0.15832123160362244,"221":-0.3474027216434479,"222":1.5158917903900146,"223":-0.6225590705871582,"224":1.370259165763855,"225":0.5346533060073853,"226":0.572969913482666,"227":-0.9446932673454285,"228":-1.1618849039077759,"229":1.9664380550384521,"230":2.055781841278076,"231":0.984899640083313,"232":-0.8228328227996826,"233":-0.7770740985870361,"234":0.7560799717903137,"235":-1.0147355794906616,"236":-0.8060258030891418,"237":-1.1351494789123535,"238":0.21896035969257355,"239":-0.47158849239349365,"240":-0.5527361631393433,"241":-0.8372132778167725,"242":1.187488317489624,"243":1.3596118688583374,"244":0.2947275936603546,"245":-0.7473651766777039,"246":1.270873785018921,"247":1.2719388008117676,"248":-0.5487303137779236,"249":0.9103504419326782,"250":0.40372681617736816,"251":-0.7598005533218384,"252":1.5802334547042847,"253":-0.2941584587097168,"254":-0.5126442909240723,"255":0.15446040034294128,"256":-0.9353016018867493,"257":-1.3581267595291138,"258":1.2894463539123535,"259":0.9140595197677612,"260":1.3009053468704224,"261":1.2168514728546143,"262":0.046167466789484024,"263":0.34285178780555725,"264":0.37551867961883545,"265":0.1855657547712326,"266":0.2943292558193207,"267":-0.6780893206596375,"268":0.6293654441833496,"269":0.1311725676059723,"270":-0.9450743794441223,"271":-1.3155426979064941,"272":0.6509259343147278,"273":-0.5249977111816406,"274":-0.02596767619252205,"275":1.0415469408035278,"276":-1.5800236463546753,"277":1.6295589208602905,"278":0.27527546882629395,"279":-0.36747267842292786,"280":1.091840147972107,"281":0.5870870351791382,"282":1.3709038496017456,"283":0.07128068804740906,"284":0.7790486216545105,"285":0.3236249089241028,"286":0.009780962020158768,"287":-0.24127307534217834,"288":-0.4596533477306366,"289":1.387784719467163,"290":0.29169976711273193,"291":-0.7979603409767151,"292":-0.669095516204834,"293":-1.428820252418518,"294":-0.6732676029205322,"295":-0.6227869391441345,"296":-0.30899572372436523,"297":-0.3544278144836426,"298":2.4232094287872314,"299":1.1290819644927979,"300":-0.7768338918685913,"301":-0.9135443568229675,"302":1.3978602886199951,"303":0.7211592793464661,"304":0.5763177275657654,"305":-0.9968249797821045,"306":-1.173555850982666,"307":2.2474122047424316,"308":-0.46058234572410583,"309":-0.024072842672467232,"310":1.1743773221969604,"311":0.4306090772151947,"312":-0.7760865092277527,"313":-2.1457881927490234,"314":0.5810279846191406,"315":-1.9481477737426758,"316":0.5624619126319885,"317":-0.12459653615951538,"318":0.4719887673854828,"319":-1.5375295877456665,"320":-1.815963864326477,"321":1.355264663696289,"322":0.5484602451324463,"323":1.0523958206176758,"324":0.2573426365852356,"325":-0.03966420143842697,"326":-0.230926975607872,"327":-1.0961687564849854,"328":-0.3759129047393799,"329":0.5236169695854187,"330":1.0537153482437134,"331":-0.4874330461025238,"332":1.0441150665283203,"333":-0.3819120228290558,"334":0.012778443284332752,"335":-1.6112644672393799,"336":-1.3653331995010376,"337":-0.01207848358899355,"338":0.126602903008461,"339":-0.7653886079788208,"340":-0.9151435494422913,"341":-0.8433853983879089,"342":1.2002978324890137,"343":2.6080322265625,"344":0.05821343883872032,"345":1.8041741847991943,"346":0.3582168221473694,"347":0.08488538861274719,"348":0.24031521379947662,"349":0.06874055415391922,"350":-0.3795645236968994,"351":0.06095855310559273,"352":2.128269672393799,"353":0.34444642066955566,"354":-0.9759628176689148,"355":-0.4202982485294342,"356":-0.17546015977859497,"357":1.1842354536056519,"358":0.2514016926288605,"359":-0.7881853580474854,"360":-0.37283143401145935,"361":-1.4226897954940796,"362":1.2184778451919556,"363":-1.7397180795669556,"364":0.7107478380203247,"365":-1.3272181749343872,"366":-0.6437134742736816,"367":1.2112716436386108,"368":0.577620267868042,"369":0.5011109709739685,"370":0.6709691882133484,"371":1.6062121391296387,"372":0.17956951260566711,"373":-0.03139182925224304,"374":1.6397886276245117,"375":1.9715851545333862,"376":-0.5252004861831665,"377":-1.3747557401657104,"378":-0.6553873419761658,"379":-0.16123779118061066,"380":0.3332834541797638,"381":3.254248857498169,"382":0.25963327288627625,"383":1.3080718517303467,"384":0.7472254633903503,"385":-0.6769443154335022,"386":0.12929561734199524,"387":-0.6697913408279419,"388":0.04810680076479912,"389":1.230912685394287,"390":0.8348517417907715,"391":0.01889689825475216,"392":2.4839963912963867,"393":1.0010112524032593,"394":0.12235982716083527,"395":-1.4804786443710327,"396":-0.07192891091108322,"397":0.30963531136512756,"398":1.951369285583496,"399":0.12845060229301453}},"inputBias":{"rows":20,"columns":1,"weights":{"0":-1.6277438402175903,"1":-1.3420015573501587,"2":3.26804256439209,"3":1.4231871366500854,"4":-0.044572614133358,"5":2.5922887325286865,"6":1.7765825986862183,"7":0.47072848677635193,"8":2.435204267501831,"9":0.06266894191503525,"10":0.23653100430965424,"11":-0.5878875851631165,"12":-0.47047561407089233,"13":5.420248031616211,"14":0.08202410489320755,"15":0.9986321330070496,"16":-0.8927796483039856,"17":3.8072304725646973,"18":2.027326822280884,"19":-0.9066641926765442}},"forgetMatrix":{"rows":20,"columns":35,"weights":{"0":0.041537825018167496,"1":0.12715186178684235,"2":0.5516189336776733,"3":-0.48970717191696167,"4":0.9903599619865417,"5":-0.18347544968128204,"6":-0.47591328620910645,"7":-0.251172810792923,"8":0.7134507298469543,"9":0.26848042011260986,"10":-0.5686571002006531,"11":0.08944215625524521,"12":0.2393655776977539,"13":-0.1910816878080368,"14":0.18378731608390808,"15":0.2068604677915573,"16":-0.39561328291893005,"17":0.006590449251234531,"18":0.2704392075538635,"19":-0.09484592825174332,"20":0.4483450651168823,"21":0.007630915846675634,"22":-0.04015529900789261,"23":-0.16963155567646027,"24":0.26248010993003845,"25":-0.46134451031684875,"26":0.41491323709487915,"27":0.6279698610305786,"28":-0.2899763882160187,"29":0.3579193353652954,"30":-0.07942406833171844,"31":0.02693009562790394,"32":-0.3587198257446289,"33":-0.053661689162254333,"34":-0.40778040885925293,"35":-0.004035795573145151,"36":0.7242227792739868,"37":0.25385820865631104,"38":0.04740762338042259,"39":-0.44546353816986084,"40":-0.9670613408088684,"41":-0.5114448070526123,"42":-0.917843759059906,"43":-0.55454421043396,"44":-1.0725727081298828,"45":-0.14257028698921204,"46":-0.44533365964889526,"47":-0.17873422801494598,"48":0.1644843965768814,"49":0.8733117580413818,"50":-0.028139270842075348,"51":-0.9433978796005249,"52":0.20935329794883728,"53":0.8241469860076904,"54":-0.5613163113594055,"55":0.5626645684242249,"56":0.1631658524274826,"57":0.28090524673461914,"58":1.1607555150985718,"59":0.007222791202366352,"60":0.3601137399673462,"61":-0.7571202516555786,"62":0.20301198959350586,"63":0.12533077597618103,"64":0.5072754621505737,"65":0.789085328578949,"66":-0.5371212959289551,"67":-0.3049573600292206,"68":-0.5431230068206787,"69":-0.21074947714805603,"70":0.22644610702991486,"71":0.10663648694753647,"72":-0.29035845398902893,"73":-0.7379853129386902,"74":0.07761519402265549,"75":-0.5577495098114014,"76":0.27770957350730896,"77":0.07258959114551544,"78":0.5595096945762634,"79":-0.041625846177339554,"80":-0.3894989490509033,"81":0.4484470784664154,"82":-0.15852554142475128,"83":0.01962253451347351,"84":-0.6031031012535095,"85":-0.6596669554710388,"86":-1.1472867727279663,"87":0.2158523052930832,"88":0.28793469071388245,"89":0.3664045035839081,"90":-0.6531772017478943,"91":-0.21558547019958496,"92":0.19631825387477875,"93":0.11902450025081635,"94":0.4528401792049408,"95":-0.7317017912864685,"96":0.3321073055267334,"97":0.23498553037643433,"98":-0.057292390614748,"99":-1.1064014434814453,"100":0.3061387240886688,"101":-0.6348246335983276,"102":0.4316951632499695,"103":0.10169395804405212,"104":0.7811418771743774,"105":0.33593663573265076,"106":-0.1532631516456604,"107":-0.17444315552711487,"108":0.7592580914497375,"109":0.024718238040804863,"110":0.3018617630004883,"111":0.4238155484199524,"112":-0.4081425368785858,"113":0.44965580105781555,"114":-0.31406456232070923,"115":-0.18320724368095398,"116":0.06203046068549156,"117":1.9353829622268677,"118":-0.8090448975563049,"119":-0.1720552295446396,"120":-0.5916381478309631,"121":-0.253275066614151,"122":0.16290895640850067,"123":0.227821946144104,"124":0.4779113233089447,"125":-0.6931360960006714,"126":-0.36862725019454956,"127":0.5436506271362305,"128":-0.15668384730815887,"129":-0.8665010333061218,"130":0.9087659120559692,"131":-0.20825736224651337,"132":-0.7285887002944946,"133":-0.005896406713873148,"134":0.047898922115564346,"135":-0.8472556471824646,"136":-0.17213663458824158,"137":0.25801023840904236,"138":-0.7287047505378723,"139":0.5004231929779053,"140":0.14717181026935577,"141":0.4251329302787781,"142":-0.0017741041956469417,"143":0.4905087351799011,"144":0.584967315196991,"145":0.20712241530418396,"146":-0.01255143154412508,"147":-0.19111983478069305,"148":-0.730340301990509,"149":0.029162688180804253,"150":0.47559893131256104,"151":-0.9459601044654846,"152":-0.26395776867866516,"153":-0.33923083543777466,"154":-0.20726855099201202,"155":-0.05541753023862839,"156":-0.34780558943748474,"157":0.3646647334098816,"158":0.2961507737636566,"159":0.3437448740005493,"160":0.7428485751152039,"161":-0.3451114594936371,"162":0.28857165575027466,"163":0.5751022100448608,"164":0.3095916211605072,"165":0.2945297360420227,"166":0.3741743266582489,"167":-0.09245990216732025,"168":-0.03184457868337631,"169":0.5915983319282532,"170":-0.2616118788719177,"171":-0.2124100625514984,"172":-0.2600984573364258,"173":-0.2695479989051819,"174":0.43731796741485596,"175":0.6250807046890259,"176":0.31753334403038025,"177":-0.014738520607352257,"178":-0.10250303894281387,"179":0.1515619307756424,"180":-0.18481841683387756,"181":0.6155479550361633,"182":0.18553504347801208,"183":-0.0492965392768383,"184":0.19524464011192322,"185":-0.731010377407074,"186":1.0905629396438599,"187":-0.5914774537086487,"188":0.3584505617618561,"189":-1.3356175422668457,"190":-0.12456478923559189,"191":-0.020906837657094002,"192":-0.40343862771987915,"193":-0.5776063203811646,"194":0.0836440771818161,"195":-0.583186149597168,"196":0.011051392182707787,"197":-0.14376217126846313,"198":-0.010606973432004452,"199":-0.8727499842643738,"200":0.08959630131721497,"201":0.004240182228386402,"202":0.4824032187461853,"203":-0.2316245585680008,"204":-0.2673771381378174,"205":1.0593653917312622,"206":0.01656089536845684,"207":0.5852280259132385,"208":-0.024647526443004608,"209":-0.4782201051712036,"210":-0.5098201036453247,"211":-0.11989841610193253,"212":0.0778406485915184,"213":-0.5173934102058411,"214":0.3222273588180542,"215":0.05584128201007843,"216":0.4841036796569824,"217":-0.27289900183677673,"218":0.4264054596424103,"219":-0.01114425528794527,"220":-0.5379254221916199,"221":-0.6116774082183838,"222":0.0050646155141294,"223":0.39631062746047974,"224":0.1071714460849762,"225":0.2284126877784729,"226":-0.24477644264698029,"227":-0.011368496343493462,"228":-0.13681170344352722,"229":-0.39718329906463623,"230":-0.03958907723426819,"231":-0.41586732864379883,"232":-0.7023255228996277,"233":0.2663280963897705,"234":-0.027364006265997887,"235":-0.7050737142562866,"236":0.40421032905578613,"237":0.7148889899253845,"238":-0.08509140461683273,"239":0.21339568495750427,"240":-0.2121490240097046,"241":-0.051158297806978226,"242":-0.14542004466056824,"243":-0.14504098892211914,"244":-0.8795773983001709,"245":0.31155869364738464,"246":0.34240344166755676,"247":-0.8487351536750793,"248":0.01128784567117691,"249":-0.0741305872797966,"250":-0.8046790361404419,"251":0.4146496057510376,"252":-0.27578508853912354,"253":-0.04780442640185356,"254":0.7648844122886658,"255":-1.257746934890747,"256":0.45251211524009705,"257":-0.8149579167366028,"258":-0.24848440289497375,"259":-0.009635237976908684,"260":-0.5375056862831116,"261":-0.5267003178596497,"262":0.3220248222351074,"263":0.5452324748039246,"264":0.4176999628543854,"265":0.1930077224969864,"266":0.8082343339920044,"267":0.5605748295783997,"268":0.1416110098361969,"269":-1.0984588861465454,"270":0.2914504408836365,"271":-0.3511970043182373,"272":0.5622851252555847,"273":0.19678574800491333,"274":-0.6705942749977112,"275":0.0061625088565051556,"276":-0.3136783838272095,"277":0.23202309012413025,"278":-0.02897433005273342,"279":0.6149897575378418,"280":0.9164223074913025,"281":0.3364783525466919,"282":-0.2961960732936859,"283":-0.4437704384326935,"284":-0.17941002547740936,"285":-0.4148252308368683,"286":-0.1954573392868042,"287":0.41273558139801025,"288":-0.21041525900363922,"289":-0.05319346487522125,"290":-0.42240309715270996,"291":-0.5254340171813965,"292":-0.12884020805358887,"293":0.9223434925079346,"294":0.1467239409685135,"295":-0.46020451188087463,"296":0.48653748631477356,"297":-0.08668294548988342,"298":-0.1780615895986557,"299":-0.4414241313934326,"300":-0.4713343381881714,"301":0.0550348162651062,"302":0.8624197840690613,"303":0.10366041958332062,"304":-0.8087223172187805,"305":0.7287340760231018,"306":0.5090617537498474,"307":-0.399934321641922,"308":-0.40262410044670105,"309":0.3060874044895172,"310":0.4634407162666321,"311":-0.027504228055477142,"312":-0.17090977728366852,"313":-0.3875928819179535,"314":0.2342352271080017,"315":0.1336161345243454,"316":-0.5400359034538269,"317":0.4900304973125458,"318":1.359682559967041,"319":-0.23411506414413452,"320":-0.08103540539741516,"321":0.6040093898773193,"322":-0.7255481481552124,"323":0.19056855142116547,"324":0.3677535951137543,"325":-0.5405740737915039,"326":0.882016658782959,"327":-0.032670386135578156,"328":-1.1854450702667236,"329":1.1928743124008179,"330":0.03931988403201103,"331":0.27438879013061523,"332":-0.5687711238861084,"333":2.303776741027832,"334":0.2954460680484772,"335":0.5730993747711182,"336":0.4848458170890808,"337":0.042905665934085846,"338":-0.4496842920780182,"339":0.7853044867515564,"340":0.7525758743286133,"341":0.19801339507102966,"342":-0.005751724820584059,"343":1.3135812282562256,"344":-0.7354685068130493,"345":-0.24060048162937164,"346":-0.07522986084222794,"347":0.49409177899360657,"348":-0.3450591266155243,"349":0.37996014952659607,"350":-0.09639286994934082,"351":-0.4252389073371887,"352":-0.6714102625846863,"353":-0.3056323230266571,"354":-0.3679904043674469,"355":-0.28088465332984924,"356":0.0577334463596344,"357":-0.09497995674610138,"358":-0.37871745228767395,"359":-0.12118642032146454,"360":1.1122173070907593,"361":-0.2858734726905823,"362":0.926482081413269,"363":0.24686074256896973,"364":0.3936379849910736,"365":-0.24936458468437195,"366":-0.04482891783118248,"367":-0.2504803538322449,"368":0.03165723755955696,"369":-0.05480547621846199,"370":-0.37260526418685913,"371":-0.26448097825050354,"372":-0.4060062766075134,"373":0.49978703260421753,"374":-0.38096174597740173,"375":-0.28746193647384644,"376":-0.3428446054458618,"377":0.007448942866176367,"378":-0.16707393527030945,"379":1.1768803596496582,"380":-0.014830093830823898,"381":-0.5315815806388855,"382":-0.2128749042749405,"383":-0.3533702492713928,"384":0.5077913999557495,"385":-1.319079041481018,"386":-0.44981467723846436,"387":-0.1602306067943573,"388":-0.8809137940406799,"389":0.5871691703796387,"390":0.21724620461463928,"391":0.8903175592422485,"392":0.18641693890094757,"393":0.05324282497167587,"394":0.41076940298080444,"395":-0.8975961804389954,"396":-0.9792346954345703,"397":-1.4775691032409668,"398":0.1487574726343155,"399":0.29652196168899536,"400":0.621037483215332,"401":-0.17778220772743225,"402":-0.07227145880460739,"403":0.3366033136844635,"404":-0.23765334486961365,"405":1.0095150470733643,"406":0.4337656497955322,"407":0.5417155623435974,"408":0.3181878924369812,"409":-0.5811792016029358,"410":-0.9419102668762207,"411":-0.40695375204086304,"412":-0.008888103999197483,"413":0.8333306908607483,"414":0.318818598985672,"415":-0.5200247764587402,"416":-0.04700535535812378,"417":0.2400875985622406,"418":0.5668591260910034,"419":-0.40068739652633667,"420":-1.079141616821289,"421":0.1445121169090271,"422":0.29715803265571594,"423":-0.3490198850631714,"424":-0.37455177307128906,"425":-0.18952858448028564,"426":-0.5147131681442261,"427":-0.08033173531293869,"428":-0.8814387917518616,"429":0.5480380654335022,"430":-0.5268338918685913,"431":-1.2531850337982178,"432":-0.9143736958503723,"433":-0.25268441438674927,"434":0.6420875191688538,"435":0.7454913854598999,"436":-0.18130238354206085,"437":0.06738289445638657,"438":-0.33257853984832764,"439":-0.43121594190597534,"440":0.6438925862312317,"441":0.6641330718994141,"442":-0.5812554955482483,"443":-0.083364337682724,"444":0.7135488390922546,"445":-0.38500097393989563,"446":-0.4591623544692993,"447":-0.11927419155836105,"448":0.2510877847671509,"449":0.3558242619037628,"450":0.6499500870704651,"451":-0.19420002400875092,"452":-0.8566418886184692,"453":-0.15370574593544006,"454":-0.5361636281013489,"455":-0.7748621106147766,"456":0.23161523044109344,"457":0.05552694946527481,"458":-0.9446771740913391,"459":0.31828993558883667,"460":-0.100914865732193,"461":0.11421148478984833,"462":0.10390565544366837,"463":-0.6826698184013367,"464":0.5517118573188782,"465":0.04989829659461975,"466":0.6504487991333008,"467":-0.5938003063201904,"468":0.11695509403944016,"469":-0.35339662432670593,"470":-0.20396971702575684,"471":0.4338558316230774,"472":-0.26842787861824036,"473":0.11151125282049179,"474":-0.008283416740596294,"475":-0.504955530166626,"476":-0.03251222148537636,"477":-0.7976438403129578,"478":0.6073741316795349,"479":0.38466089963912964,"480":-0.9870693683624268,"481":0.6337308883666992,"482":0.4932727515697479,"483":0.1988210529088974,"484":-0.4476049244403839,"485":0.40748313069343567,"486":1.0987058877944946,"487":-0.05337671935558319,"488":-0.14253932237625122,"489":-0.29879048466682434,"490":-0.11682327091693878,"491":-0.11519591510295868,"492":0.015937820076942444,"493":0.023519910871982574,"494":0.689278781414032,"495":0.36790481209754944,"496":-0.6412795782089233,"497":0.4098840057849884,"498":0.029446866363286972,"499":0.2731560170650482,"500":0.7111786007881165,"501":0.521144688129425,"502":0.5427542924880981,"503":0.7926130294799805,"504":-0.20800994336605072,"505":0.3958369195461273,"506":0.09332715719938278,"507":-0.19357791543006897,"508":-0.6648744940757751,"509":-0.6825850605964661,"510":0.41168826818466187,"511":-0.34347423911094666,"512":-0.8732646703720093,"513":-0.20451216399669647,"514":-0.1602506935596466,"515":-0.44021475315093994,"516":-0.07306470721960068,"517":-0.2561931312084198,"518":-0.7991738319396973,"519":0.43705475330352783,"520":0.13386517763137817,"521":0.7694969177246094,"522":0.08187849074602127,"523":-0.2835187315940857,"524":-0.18961107730865479,"525":0.2421368956565857,"526":0.1000031977891922,"527":-0.6242626309394836,"528":-0.43137797713279724,"529":-1.0641626119613647,"530":1.018639326095581,"531":0.7721585631370544,"532":0.21858997642993927,"533":1.45542311668396,"534":-1.057650089263916,"535":1.0378098487854004,"536":0.01006990484893322,"537":0.40748369693756104,"538":0.1628948301076889,"539":0.0023423926904797554,"540":-0.21569618582725525,"541":0.30740630626678467,"542":0.337864488363266,"543":-0.06426148116588593,"544":0.0005551933427341282,"545":-1.0714261531829834,"546":-0.12527060508728027,"547":0.11426282674074173,"548":0.12435053288936615,"549":-0.9138553142547607,"550":0.33281993865966797,"551":-0.17316485941410065,"552":-1.1340630054473877,"553":-0.33639419078826904,"554":-0.15256913006305695,"555":-0.74118572473526,"556":-0.3989710509777069,"557":0.09554792195558548,"558":-0.6383339762687683,"559":0.44292205572128296,"560":0.2032904326915741,"561":0.8546551465988159,"562":0.0710129588842392,"563":-0.5454095005989075,"564":0.5908932089805603,"565":-0.005500446073710918,"566":-0.29183122515678406,"567":-0.32442066073417664,"568":-0.2645571231842041,"569":0.023742713034152985,"570":0.6247771978378296,"571":0.2337268888950348,"572":-0.6198652386665344,"573":-0.21616508066654205,"574":0.08178798109292984,"575":-0.11598160862922668,"576":0.2809143662452698,"577":-0.19467586278915405,"578":-0.3651471734046936,"579":0.3921116590499878,"580":-0.8944686651229858,"581":-0.03378641605377197,"582":-0.08526131510734558,"583":-0.5457706451416016,"584":0.0924115777015686,"585":-0.33698153495788574,"586":0.5445283055305481,"587":0.14346298575401306,"588":0.08371498435735703,"589":-0.6660359501838684,"590":-0.15282917022705078,"591":-0.12258825451135635,"592":-0.33111006021499634,"593":-0.43987366557121277,"594":0.08420755714178085,"595":0.287706196308136,"596":-0.39823824167251587,"597":-0.6184573769569397,"598":-0.3519017696380615,"599":-0.0610661655664444,"600":-0.6313088536262512,"601":0.21778805553913116,"602":0.6089285016059875,"603":0.853954017162323,"604":0.9381465315818787,"605":-0.38587749004364014,"606":1.3942623138427734,"607":1.057334303855896,"608":0.005624542012810707,"609":0.32708540558815,"610":-0.6222845315933228,"611":0.1924668848514557,"612":-0.18587608635425568,"613":-0.34634891152381897,"614":0.3978859782218933,"615":-0.6968857049942017,"616":-0.10701780766248703,"617":-0.0794055312871933,"618":-0.7443035840988159,"619":-0.5717371106147766,"620":-0.8822191953659058,"621":0.26028740406036377,"622":0.33228522539138794,"623":-0.029745107516646385,"624":-0.2910192906856537,"625":0.4055940508842468,"626":-0.1240207776427269,"627":0.39504069089889526,"628":0.1035897508263588,"629":-0.6158536076545715,"630":-0.05977960675954819,"631":-0.20698408782482147,"632":0.21418306231498718,"633":-0.17108173668384552,"634":0.5153695344924927,"635":-0.7221835851669312,"636":-0.3457343876361847,"637":-1.0184173583984375,"638":-0.7465314269065857,"639":-0.040086958557367325,"640":-0.19548559188842773,"641":0.27736765146255493,"642":0.3979356586933136,"643":0.4196867346763611,"644":1.1833014488220215,"645":0.26062554121017456,"646":-0.9470783472061157,"647":0.05219372734427452,"648":0.0767117440700531,"649":-0.1557595282793045,"650":0.6308650374412537,"651":-0.3606550693511963,"652":-0.3054194450378418,"653":0.910368800163269,"654":0.5633814930915833,"655":0.39866510033607483,"656":-0.6439650654792786,"657":1.4503443241119385,"658":0.5656874775886536,"659":-0.09172984212636948,"660":0.2942308485507965,"661":0.08849861472845078,"662":0.3041030764579773,"663":-0.48875871300697327,"664":-0.19892556965351105,"665":0.18321412801742554,"666":-0.2914952337741852,"667":0.1305992752313614,"668":-0.5288511514663696,"669":0.4434937834739685,"670":-0.3465590476989746,"671":0.21625462174415588,"672":0.1822335571050644,"673":-0.7714654803276062,"674":1.3690016269683838,"675":-1.2311458587646484,"676":0.5126647353172302,"677":-0.7641329169273376,"678":0.03968290612101555,"679":-1.5045437812805176,"680":0.35969483852386475,"681":-0.2911871075630188,"682":-0.189121276140213,"683":-0.16196471452713013,"684":0.43114277720451355,"685":-0.01793851889669895,"686":0.031048914417624474,"687":0.6162590980529785,"688":-0.6423189043998718,"689":-0.20598116517066956,"690":-0.8046311736106873,"691":0.7044559717178345,"692":-0.015254422090947628,"693":0.7005905508995056,"694":-0.2563236653804779,"695":-0.08234673738479614,"696":0.6324726939201355,"697":0.38477611541748047,"698":0.3313746750354767,"699":-0.2008371353149414}},"forgetHidden":{"rows":20,"columns":20,"weights":{"0":1.3176902532577515,"1":-1.4898523092269897,"2":0.38313359022140503,"3":-1.079425573348999,"4":-2.4712812900543213,"5":1.4142272472381592,"6":-1.7527716159820557,"7":1.6875249147415161,"8":-0.6775034070014954,"9":0.7604416012763977,"10":0.054950471967458725,"11":0.26340252161026,"12":-0.3401475250720978,"13":0.5697352886199951,"14":-0.7919227480888367,"15":1.4663870334625244,"16":0.30212756991386414,"17":-2.5657296180725098,"18":-0.6380305290222168,"19":0.34729161858558655,"20":-0.049066249281167984,"21":1.6605521440505981,"22":-1.4577633142471313,"23":-1.0876637697219849,"24":-0.18724113702774048,"25":-0.7562892436981201,"26":1.7880656719207764,"27":1.0281871557235718,"28":-0.49871787428855896,"29":-0.5669546723365784,"30":1.2198814153671265,"31":0.45027363300323486,"32":-0.6403303742408752,"33":0.05430043861269951,"34":0.9015761017799377,"35":2.584923267364502,"36":-0.1471034437417984,"37":0.5566881895065308,"38":0.6211994886398315,"39":0.3060207962989807,"40":0.9890140295028687,"41":-0.4919186234474182,"42":-0.445537269115448,"43":0.1220509335398674,"44":-0.6525238156318665,"45":1.0013902187347412,"46":-1.3296550512313843,"47":-0.1468484103679657,"48":0.4581417441368103,"49":0.6737812757492065,"50":-0.30095431208610535,"51":0.6548016667366028,"52":0.4271865487098694,"53":-0.4586472809314728,"54":1.8075976371765137,"55":-0.9865273833274841,"56":0.34660881757736206,"57":0.2676677107810974,"58":-0.4200551211833954,"59":3.2993876934051514,"60":0.713992178440094,"61":1.1717420816421509,"62":0.4724567234516144,"63":-0.5157806277275085,"64":-0.468869686126709,"65":-0.6491184234619141,"66":0.7223370671272278,"67":0.5208678841590881,"68":2.2760350704193115,"69":0.9209951758384705,"70":-0.7023196816444397,"71":-0.4349533021450043,"72":1.0640037059783936,"73":0.9115371704101562,"74":-1.4397317171096802,"75":0.5672584176063538,"76":1.1136552095413208,"77":-0.31776198744773865,"78":-0.17032785713672638,"79":-0.06810498237609863,"80":1.6448659896850586,"81":0.27156415581703186,"82":0.22639673948287964,"83":-1.3724976778030396,"84":0.4653337299823761,"85":-0.8728197813034058,"86":1.152818202972412,"87":-3.280778646469116,"88":0.9246554970741272,"89":0.6942847967147827,"90":0.5470253825187683,"91":-0.918380618095398,"92":0.3389420211315155,"93":1.5567454099655151,"94":0.5546138286590576,"95":0.6861957907676697,"96":-1.3630659580230713,"97":0.25996819138526917,"98":0.9740522503852844,"99":0.6232307553291321,"100":2.1507744789123535,"101":-0.42461806535720825,"102":1.2833675146102905,"103":2.0764241218566895,"104":0.089218869805336,"105":-0.17053785920143127,"106":-2.289435863494873,"107":0.261882483959198,"108":1.0374622344970703,"109":-0.06833905726671219,"110":-0.5068038702011108,"111":-0.14330211281776428,"112":0.15972737967967987,"113":0.46321797370910645,"114":1.2716283798217773,"115":-0.18209297955036163,"116":-0.8661956191062927,"117":0.10104213654994965,"118":0.8788197040557861,"119":0.10243432968854904,"120":0.3013017475605011,"121":-0.6960976123809814,"122":0.23355655372142792,"123":-0.8002762198448181,"124":-1.7903507947921753,"125":0.9721547365188599,"126":1.3792117834091187,"127":-0.910531759262085,"128":2.0139214992523193,"129":0.6788064241409302,"130":-0.961064338684082,"131":-0.2609911561012268,"132":1.778624415397644,"133":-0.7877774238586426,"134":0.20650239288806915,"135":1.2920112609863281,"136":-0.28176259994506836,"137":0.8207628130912781,"138":-0.015667183324694633,"139":1.0863643884658813,"140":1.2393840551376343,"141":0.9325135946273804,"142":-1.8968230485916138,"143":-1.5519548654556274,"144":1.464766263961792,"145":1.3415098190307617,"146":-0.5867637395858765,"147":-0.5365516543388367,"148":0.3676832616329193,"149":-0.5462556481361389,"150":0.44374382495880127,"151":0.054383084177970886,"152":-0.5832474827766418,"153":2.0285515785217285,"154":-1.7798185348510742,"155":-0.05466208979487419,"156":-1.789307713508606,"157":0.11574332416057587,"158":-1.0444469451904297,"159":-0.1269483119249344,"160":0.6677144169807434,"161":1.125249981880188,"162":1.721409559249878,"163":0.44985345005989075,"164":-1.9143774509429932,"165":-1.3220871686935425,"166":0.5394567847251892,"167":1.3443926572799683,"168":-0.5793404579162598,"169":-0.43131864070892334,"170":0.22575564682483673,"171":0.9831849336624146,"172":1.4964580535888672,"173":-0.8958203792572021,"174":1.4898594617843628,"175":-0.08303648233413696,"176":0.7969198822975159,"177":-0.5447110533714294,"178":1.689131498336792,"179":-0.5286468267440796,"180":0.01146594900637865,"181":1.0793287754058838,"182":1.365944743156433,"183":1.7208271026611328,"184":-0.057656943798065186,"185":-0.5746632218360901,"186":-0.28623998165130615,"187":0.39432981610298157,"188":1.1012722253799438,"189":0.6721817851066589,"190":-0.92950838804245,"191":-0.44414713978767395,"192":0.2385426163673401,"193":-1.2525444030761719,"194":0.0539957657456398,"195":1.137061595916748,"196":-1.0814993381500244,"197":0.24895469844341278,"198":-0.9687223434448242,"199":0.9674583077430725,"200":1.5894951820373535,"201":-0.8520323634147644,"202":-0.4038091003894806,"203":1.4193702936172485,"204":-1.5646848678588867,"205":-0.17488697171211243,"206":-1.4974782466888428,"207":-0.6393155455589294,"208":-0.5416430830955505,"209":-0.7324178218841553,"210":0.6812065243721008,"211":-0.8711233139038086,"212":-0.6114504933357239,"213":0.6443624496459961,"214":0.8281775116920471,"215":0.8409174680709839,"216":-1.2683302164077759,"217":-0.6150596141815186,"218":0.1759801059961319,"219":0.6119444370269775,"220":-1.2629903554916382,"221":-2.7375130653381348,"222":-1.2777949571609497,"223":-0.7930526733398438,"224":-0.2889871895313263,"225":0.05306687206029892,"226":-0.06479361653327942,"227":-0.7927104234695435,"228":0.4873632788658142,"229":1.176947832107544,"230":-0.6966301202774048,"231":-1.5725760459899902,"232":0.2924952208995819,"233":-0.6648233532905579,"234":-1.662414312362671,"235":-0.7504366636276245,"236":-2.2373595237731934,"237":-1.1495842933654785,"238":0.8318600058555603,"239":-0.4225558936595917,"240":0.2781461477279663,"241":-1.1831518411636353,"242":1.6457493305206299,"243":-1.599493145942688,"244":0.5520693063735962,"245":0.07065035402774811,"246":-1.7417049407958984,"247":-0.6971533298492432,"248":-0.6884808540344238,"249":-0.38914674520492554,"250":0.5549674034118652,"251":1.2390161752700806,"252":-1.7004958391189575,"253":-0.886165201663971,"254":-0.32365861535072327,"255":-1.2775745391845703,"256":-1.8998661041259766,"257":-1.7600704431533813,"258":-0.7333219051361084,"259":-0.7725573182106018,"260":-0.27133509516716003,"261":-1.1249455213546753,"262":0.4533151090145111,"263":-1.0426533222198486,"264":-0.19608716666698456,"265":-2.70713210105896,"266":0.9163976311683655,"267":0.14941169321537018,"268":-0.6143043637275696,"269":-1.182487964630127,"270":-0.04950777441263199,"271":1.60109281539917,"272":-0.4647218585014343,"273":-1.2230839729309082,"274":1.360814094543457,"275":0.926777720451355,"276":0.2323484867811203,"277":-1.1444002389907837,"278":-0.7163192629814148,"279":0.32903704047203064,"280":-1.0014045238494873,"281":0.36510908603668213,"282":0.24536770582199097,"283":0.08304127305746078,"284":-0.6323613524436951,"285":2.3467042446136475,"286":0.963019073009491,"287":0.0839591696858406,"288":1.2772324085235596,"289":0.5523987412452698,"290":-0.19896529614925385,"291":-1.463685154914856,"292":0.08313266187906265,"293":-0.14397810399532318,"294":0.7260437607765198,"295":2.4457218647003174,"296":0.5129328966140747,"297":0.8993445634841919,"298":0.08900484442710876,"299":-0.15983325242996216,"300":0.750311553478241,"301":0.513769268989563,"302":-0.8060057759284973,"303":0.16158348321914673,"304":1.0512841939926147,"305":-0.7187294363975525,"306":-0.35572928190231323,"307":-0.7892997860908508,"308":2.642223358154297,"309":1.5317392349243164,"310":-0.6757410168647766,"311":-1.411787986755371,"312":1.0692259073257446,"313":-1.541103720664978,"314":-0.8907151818275452,"315":1.587630033493042,"316":-2.32391357421875,"317":-1.3158611059188843,"318":-0.08714090287685394,"319":0.8428114652633667,"320":2.0154495239257812,"321":0.561042308807373,"322":-0.9343915581703186,"323":1.2496082782745361,"324":1.8183009624481201,"325":0.29229897260665894,"326":-1.159035563468933,"327":0.04110763221979141,"328":-1.8474522829055786,"329":2.969848394393921,"330":-0.015903981402516365,"331":-0.8307631611824036,"332":1.784564733505249,"333":-0.7891899943351746,"334":0.4572787880897522,"335":-0.8541115522384644,"336":-1.0720787048339844,"337":-0.2135993391275406,"338":1.7733193635940552,"339":0.18975426256656647,"340":0.9175861477851868,"341":-0.49145787954330444,"342":0.7359876036643982,"343":-0.1664777547121048,"344":0.8285787105560303,"345":-1.5191034078598022,"346":-0.07612346857786179,"347":0.6751983761787415,"348":0.14504675567150116,"349":-0.40642648935317993,"350":-0.32864272594451904,"351":1.941392421722412,"352":0.068023681640625,"353":-0.9200966954231262,"354":-0.1966039538383484,"355":-0.5344746112823486,"356":0.39844807982444763,"357":-0.9139922857284546,"358":-0.42150717973709106,"359":-0.6728975176811218,"360":0.19345593452453613,"361":-0.24059778451919556,"362":0.32664117217063904,"363":-0.07569867372512817,"364":-0.4917546212673187,"365":-1.9953827857971191,"366":-0.3794606626033783,"367":-0.6101995706558228,"368":0.8070746660232544,"369":-0.33663833141326904,"370":-0.3034118115901947,"371":-0.30829688906669617,"372":-0.3439289629459381,"373":0.8160580396652222,"374":-0.8874140381813049,"375":0.3279220163822174,"376":-1.1861110925674438,"377":0.5913897752761841,"378":-0.028337325900793076,"379":0.502086877822876,"380":-0.18349741399288177,"381":0.6508998870849609,"382":-0.5949798226356506,"383":-0.036701105535030365,"384":-0.7812906503677368,"385":0.005969752557575703,"386":0.5624406337738037,"387":1.0358390808105469,"388":-0.36129650473594666,"389":-0.8098873496055603,"390":0.6083633899688721,"391":1.487617015838623,"392":-3.6984896659851074,"393":-0.7231654524803162,"394":-0.3734476864337921,"395":0.9947580695152283,"396":0.3627232313156128,"397":-0.7800970077514648,"398":-0.14759425818920135,"399":-0.4337676763534546}},"forgetBias":{"rows":20,"columns":1,"weights":{"0":0,"1":0,"2":0,"3":0,"4":0,"5":0,"6":0,"7":0,"8":0,"9":0,"10":0,"11":0,"12":0,"13":0,"14":0,"15":0,"16":0,"17":0,"18":0,"19":0}},"outputMatrix":{"rows":20,"columns":35,"weights":{"0":0.6943526268005371,"1":0.021449999883770943,"2":-0.5399259328842163,"3":-0.27853044867515564,"4":-0.35577717423439026,"5":0.05390629544854164,"6":0.09466635435819626,"7":-0.1871660053730011,"8":1.0037397146224976,"9":-0.9607982635498047,"10":0.2864139676094055,"11":0.2599963843822479,"12":0.5151675343513489,"13":-0.7537810802459717,"14":-0.2696102261543274,"15":-0.7746369242668152,"16":0.12789864838123322,"17":-0.0944848507642746,"18":0.31517425179481506,"19":-0.24116966128349304,"20":-0.7841042876243591,"21":0.1986594945192337,"22":-0.38936376571655273,"23":0.5930098295211792,"24":-0.641817569732666,"25":0.3709765374660492,"26":-0.05756857618689537,"27":0.03116552345454693,"28":-0.29561731219291687,"29":0.2620741128921509,"30":0.11212654411792755,"31":-0.43275710940361023,"32":0.41982537508010864,"33":0.08295921236276627,"34":0.1964254081249237,"35":-0.5626919269561768,"36":0.042727820575237274,"37":0.24671129882335663,"38":-0.8559674620628357,"39":1.034776210784912,"40":-0.19218042492866516,"41":0.2490111142396927,"42":-0.27322977781295776,"43":-0.37159207463264465,"44":-0.640451967716217,"45":-0.23891299962997437,"46":-0.27158573269844055,"47":-0.5607856512069702,"48":0.3750166594982147,"49":0.22945043444633484,"50":-0.15508940815925598,"51":-0.09615810960531235,"52":0.34494152665138245,"53":0.09649492055177689,"54":-0.5743230581283569,"55":0.1624377816915512,"56":-0.6706199645996094,"57":-0.15620046854019165,"58":0.6547175049781799,"59":-0.3458477258682251,"60":-0.35915350914001465,"61":0.08145703375339508,"62":0.11088690161705017,"63":0.19915130734443665,"64":0.042909421026706696,"65":0.17528125643730164,"66":-0.21835358440876007,"67":-0.3041943907737732,"68":0.04957585781812668,"69":-0.7609356045722961,"70":0.3309924304485321,"71":-0.2230662703514099,"72":-0.20228756964206696,"73":-0.6564114689826965,"74":-0.19063043594360352,"75":0.9338823556900024,"76":1.0494835376739502,"77":0.4337787628173828,"78":-0.06595709174871445,"79":-0.683192789554596,"80":0.8655985593795776,"81":0.17740656435489655,"82":0.5697280764579773,"83":0.058381516486406326,"84":-0.6512582302093506,"85":-0.10989680886268616,"86":0.09163983166217804,"87":-0.15142980217933655,"88":0.7180105447769165,"89":0.21015748381614685,"90":-0.2306801676750183,"91":0.22654101252555847,"92":-0.37280669808387756,"93":0.695702314376831,"94":-0.1555565893650055,"95":-0.4180068373680115,"96":-0.30805015563964844,"97":0.031489256769418716,"98":-0.24511025846004486,"99":-0.29100075364112854,"100":0.4635656177997589,"101":-0.5283151268959045,"102":-0.11495064944028854,"103":-0.21987445652484894,"104":0.7781285047531128,"105":0.24497631192207336,"106":0.039691220968961716,"107":-0.1060979887843132,"108":0.182943657040596,"109":-0.4535864293575287,"110":-0.3615816831588745,"111":-0.012660762295126915,"112":0.3151729702949524,"113":0.39464959502220154,"114":0.22046110033988953,"115":-0.40994885563850403,"116":0.3053821623325348,"117":0.06328954547643661,"118":0.8608547449111938,"119":0.2411189079284668,"120":-0.09641779959201813,"121":0.02552693895995617,"122":-0.31872981786727905,"123":-0.2991630434989929,"124":-0.09398859739303589,"125":0.14426982402801514,"126":-0.2103051096200943,"127":-0.052150193601846695,"128":-0.023181308060884476,"129":0.6108255386352539,"130":0.007064614910632372,"131":0.44906461238861084,"132":0.024245867505669594,"133":0.23072904348373413,"134":0.48260730504989624,"135":0.44827979803085327,"136":0.16960600018501282,"137":1.2006138563156128,"138":0.5040627121925354,"139":-0.542299747467041,"140":-0.41904154419898987,"141":-0.09910522401332855,"142":0.16061443090438843,"143":-0.49539899826049805,"144":-0.2965652644634247,"145":0.3341633975505829,"146":0.013280834071338177,"147":0.027515282854437828,"148":0.1809973567724228,"149":0.11051927506923676,"150":0.49560901522636414,"151":-0.4504334628582001,"152":-0.9955315589904785,"153":0.15774334967136383,"154":-0.14128565788269043,"155":0.40707653760910034,"156":0.10343428701162338,"157":-0.25666680932044983,"158":-0.2890772819519043,"159":-0.2942224144935608,"160":-0.27111580967903137,"161":-0.23550230264663696,"162":-0.3074933588504791,"163":0.23859062790870667,"164":0.40451565384864807,"165":-0.8937597274780273,"166":-0.34425610303878784,"167":-0.3925016224384308,"168":-0.04560638219118118,"169":0.6619524359703064,"170":-0.2215585708618164,"171":-0.22863970696926117,"172":-0.29275545477867126,"173":0.39709463715553284,"174":-0.39426079392433167,"175":-0.2111695557832718,"176":-0.3721664249897003,"177":0.3170768916606903,"178":-0.5984017252922058,"179":-0.5953097939491272,"180":0.6944140195846558,"181":0.08373907208442688,"182":-0.6571025252342224,"183":-0.059186700731515884,"184":-0.5821911692619324,"185":-0.3645157516002655,"186":0.5133635401725769,"187":-0.25811102986335754,"188":-0.1314934343099594,"189":-0.6162067651748657,"190":0.006589376833289862,"191":-0.7999929189682007,"192":0.29840847849845886,"193":0.008985121734440327,"194":0.22130034863948822,"195":0.024616418406367302,"196":0.006196958944201469,"197":-0.1186944991350174,"198":0.23790624737739563,"199":0.6164461970329285,"200":-1.1575429439544678,"201":0.27121490240097046,"202":0.017531931400299072,"203":0.5188614130020142,"204":-0.8030014634132385,"205":-0.3056187331676483,"206":-0.9821187257766724,"207":-0.04439501464366913,"208":-0.3598637580871582,"209":0.11257679760456085,"210":0.037255726754665375,"211":-0.2611675560474396,"212":0.020405832678079605,"213":-0.06323719024658203,"214":0.3362056612968445,"215":-0.05465066805481911,"216":-1.1084811687469482,"217":-0.16479803621768951,"218":0.1110813170671463,"219":-0.624670684337616,"220":0.7484240531921387,"221":-0.23348259925842285,"222":-0.001767762005329132,"223":0.3758796751499176,"224":-0.49988940358161926,"225":0.11767420917749405,"226":-0.7063420414924622,"227":-0.1044541448354721,"228":0.4623056948184967,"229":0.29824116826057434,"230":0.33045151829719543,"231":0.34556734561920166,"232":0.23465831577777863,"233":-0.18314547836780548,"234":0.7560397386550903,"235":-0.35510215163230896,"236":-0.04058248922228813,"237":0.6507925987243652,"238":-0.38506096601486206,"239":0.2915361821651459,"240":0.09235480427742004,"241":-0.1667184829711914,"242":-0.1981605887413025,"243":0.43398064374923706,"244":0.7891911268234253,"245":-0.10529883950948715,"246":-0.1515626609325409,"247":0.224393829703331,"248":-0.08952486515045166,"249":-0.35826534032821655,"250":0.09977824985980988,"251":-0.1511443555355072,"252":0.05891496688127518,"253":0.7973437309265137,"254":-0.4967094659805298,"255":0.1832628846168518,"256":0.5676929950714111,"257":-0.06121791526675224,"258":-0.25353679060935974,"259":-0.4926130473613739,"260":-0.03339119255542755,"261":-0.6107946038246155,"262":-0.1587090939283371,"263":0.03305840492248535,"264":-0.21074041724205017,"265":0.24279820919036865,"266":-0.04055388271808624,"267":0.022367212921380997,"268":0.41323956847190857,"269":0.03486580401659012,"270":0.39357471466064453,"271":-0.11508713662624359,"272":-0.02430303767323494,"273":-0.022813711315393448,"274":0.025443969294428825,"275":-0.0024020567070692778,"276":-0.43438664078712463,"277":0.33910298347473145,"278":0.14407238364219666,"279":0.24172554910182953,"280":0.7292090058326721,"281":-0.6357719302177429,"282":-0.06709778308868408,"283":-0.6598123908042908,"284":-0.15128226578235626,"285":-0.14859545230865479,"286":0.6070243120193481,"287":0.9540156126022339,"288":1.6593667268753052,"289":0.20899702608585358,"290":0.5097808241844177,"291":0.6989479660987854,"292":0.19219236075878143,"293":-0.1428551971912384,"294":-0.606656551361084,"295":-0.4309277832508087,"296":0.5296398401260376,"297":-0.24456100165843964,"298":-0.11996717005968094,"299":0.7298981547355652,"300":-1.2857420444488525,"301":-0.013517470099031925,"302":0.27532798051834106,